svm_type c_svc
kernel_type linear
nr_class 5
total_sv 46
rho 0.099883822570385472 -0.22602479314088958 -0.030179938251177405 0.077846024897859925 -0.21509137370867121 -0.14880211130185711 -0.076669288667900792 0.17529606819152824 0.1595225513565218 -0.051403392517334077
label 0 1 2 3 4
probA -3.0947360478203998 -2.9752711754269563 -3.0862691530691597 -3.4403016576927792 -2.5259750699599079 -2.5844594087154071 -2.2536591201691221 -2.4782394965424399 -2.6483685739919882 -2.2318276210362553
probB -0.36792575011072648 -0.41806782726814157 -0.32178809338460757 0.22767041657139853 -0.058707797864447533 -0.17133390306480695 -0.11381550941488403 0.061779020611310506 0.23441358221707642 -0.16736050170557304
nr_sv 19 7 7 9 4
SV
0 0 0 0.32291607654001597 0:0.019713 1:0.065272 2:-0.074599 3:0.03321 4:0.03353 5:0.004978 6:-0.027527 7:0.035179 8:0.023547 9:0.026151 10:0.019606 11:0.022043 12:-0.022467 13:0.002551 14:-0.018852 15:0.025444 16:0.100958 17:0.040927 18:0.033985 19:0.01409 20:0.033974 21:-0.00167 22:0.017672 23:-0.014445 24:0.007856 25:-0.01786 26:0.075823 27:0.018358 28:0.054305 29:0.072394 30:0.024665 31:-0.050265 32:0.016321 33:0.037024 34:-0.002686 35:-0.097566 36:-0.074257 37:-0.07843 38:0.043851 39:0.03048 40:-0.048563 41:-0.055843 42:-0.042223 43:0.038906 44:-0.050769 45:0.045316 46:-0.038156 47:0.016575 48:0.000204 49:0.048184 50:-0.068184 51:-0.060367 52:0.018822 53:-0.044142 54:0.019156 55:-0.01908 56:0.017819 57:-0.07689 58:0.045003 59:-0.013513 60:-0.016271 61:0.065075 62:0.008031 63:0.094614 64:0.009925 65:-0.056519 66:-0.020181 67:-0.083446 68:-0.005192 69:-0.050525 70:-0.052508 71:-0.015683 72:-0.022079 73:0.047127 74:-0.019833 75:0.062591 76:-0.027229 77:-0.080098 78:0.052303 79:0.000291 80:0.04725 81:-0.078915 82:-0.04548 83:0.042489 84:0.053649 85:-0.019207 86:-0.030283 87:0.018285 88:-0.008254 89:-0.111223 90:-0.050264 91:-0.062878 92:0.008437 93:-0.004851 94:0.049294 95:0.041782 96:-0.076874 97:0.03725 98:0.035194 99:0.037847 100:0.051311 101:0.064954 102:-0.011852 103:0.065034 104:0.008756 105:-0.018566 106:-0.06383 107:-0.036026 108:0.070419 109:-0.027167 110:0.024421 111:-0.029147 112:-0.025341 113:-0.08962 114:-0.023722 115:0.004515 116:-0.044453 117:0.038955 118:0.016029 119:0.042765 120:0.068193 121:0.004471 122:-0.017855 123:-0.048834 124:-0.035848 125:-0.049558 126:0.084381 127:-0.073442 128:-0.034337 129:0.026982 130:-0.041056 131:0.020336 132:-0.032259 133:-0.044834 134:-0.019285 135:0.012856 136:-0.023808 137:-0.039683 138:0.049718 139:0.057062 140:0.021907 141:0.067133 142:-0.03913 143:-0.061881 144:0.072678 145:-0.020118 146:0.004309 147:0.030298 148:-0.052903 149:-0.030709 150:0.018127 151:0.080619 152:0.080948 153:0.06025 154:0.017265 155:-0.017101 156:-0.067245 157:-0.030503 158:-0.018415 159:-0.088683 160:0.025798 161:0.092746 162:0.030711 163:0.071848 164:0.0193 165:0.028373 166:0.037548 167:0.087108 168:-0.11157 169:0.009403 170:0.002283 171:0.020533 172:0.083784 173:0.025509 174:0.013507 175:0.035947 176:-0.09904 177:-0.00751 178:0.027119 179:0.024129 180:0.029711 181:-0.072139 182:-0.013232 183:0.033678 184:0.039998 185:-0.007869 186:0.027498 187:0.023978 188:-0.01887 189:-0.009698 190:-0.045112 191:0.044841 192:0.068303 193:-0.092305 194:0.066684 195:-0.052618 196:-0.036901 197:-0.022487 198:0.061231 199:-0.010934 200:0.028791 201:-0.01441 202:0.078004 203:-0.061289 204:0.047496 205:0.023478 206:0.017167 207:-0.038701 208:0.012819 209:0.029566 210:-0.00218 211:0.054211 212:-0.045007 213:-0.017019 214:0.001238 215:0.008414 216:0.017259 217:-0.017816 218:0.004319 219:-0.041285 220:-0.005814 221:0.022235 222:0.054286 223:0.055831 224:0.065189 225:-0.031783 226:0.013741 227:-0.045591 228:-0.014255 229:-0.020629 230:-0.016807 231:-0.048087 232:0.026779 233:-0.025502 234:-0.051069 235:-0.037937 236:0.039239 237:0.022754 238:-0.003452 239:0.033687 240:0.043495 241:-0.024444 242:0.001905 243:-0.05709 244:-0.007438 245:0.110246 246:-0.0775 247:-0.028441 248:0.011033 249:0.007166 250:-0.057379 251:0.010084 252:0.080575 253:0.055412 254:-0.033421 255:-0.011114 256:0.001251 257:0.073769 258:0.054649 259:-0.00397 260:-0.070871 261:-0.015861 262:0.05813 263:-0.049119 264:-0.001367 265:-0.040649 266:0.059827 267:-0.000623 268:-0.023267 269:-0.102465 270:0.094866 271:-0.005465 272:0.05939 273:0.003675 274:-0.030402 275:0.128252 276:0.005319 277:0.050316 278:-0.016582 279:0.005025 280:0.038383 281:-0.004176 282:0.001743 283:0.038564 284:0.004439 285:0.006302 286:0.030878 287:-0.020137 288:-0.018564 289:0.065733 290:-0.024426 291:-0.085476 292:-0.043424 293:0.006577 294:-0.044436 295:-0.046184 296:-0.065739 297:-0.052984 298:0.070182 299:-0.031978 300:0.048659 301:-0.032595 302:-0.063811 303:-0.017846 304:-0.049855 305:0.02572 306:0.045737 307:0.009575 308:-0.08027 309:-0.034242 310:-0.088974 311:-0.073252 312:0.007576 313:-0.026182 314:-0.025578 315:0.009113 316:-0.028295 317:-0.015305 318:0.098489 319:-0.033086 320:-0.038243 321:-0.017428 322:-0.012706 323:-0.046836 324:-0.034897 325:0.031579 326:0.046821 327:0.036467 328:0.00627 329:0.015349 330:0.057573 331:0.009449 332:-0.104802 333:0.021258 334:-0.024562 335:0.044012 336:0.011581 337:-0.061608 338:-0.048474 339:0.02255 340:0.040086 341:-0.025896 342:0.038626 343:0.04273 344:-0.013088 345:0.01634 346:-0.016109 347:0.006539 348:-0.037619 349:0.051541 350:-0.004744 351:-0.01838 352:-0.003769 353:-0.012492 354:0.002921 355:-0.025082 356:0.01547 357:0.012307 358:-0.043756 359:-0.057541 360:-0.040214 361:-0.057985 362:-0.010257 363:-0.00792 364:0.051544 365:0.067257 366:-0.014713 367:0.004515 368:-0.044709 369:0.055675 370:-0.049377 371:-0.000816 372:0.007737 373:-0.006778 374:0.044287 375:0.001668 376:-0.044007 377:0.046024 378:-0.033392 379:0.019877 380:-0.027901 381:-0.025287 382:-0.055231 383:0.024776 384:0.012942 385:-0.031698 386:0.043428 387:0.07853 388:-0.018604 389:0.044382 390:0.003663 391:0.02653 392:-0.065837 393:0.019539 394:-0.001113 395:0.01824 396:-0.038101 397:0.014668 398:0.045538 399:-0.100049 400:0.028689 401:-0.021794 402:0.048765 403:0.046192 404:0.054454 405:0.048411 406:-0.071716 407:0.026764 408:-0.010569 409:-0.045391 410:0.003048 411:-0.001088 412:0.021363 413:0.01309 414:-0.027778 415:-0.048242 416:0.128373 417:0.048661 418:0.018072 419:0.010034 420:0.030623 421:-0.023498 422:0.034695 423:0.010909 424:-0.003658 425:0.046216 426:-0.009129 427:0.00883 428:0.045604 429:0.005776 430:-0.021366 431:-0.028316 432:-0.029808 433:0.013166 434:0.042228 435:-0.01096 436:-0.06529 437:-0.092637 438:0.007974 439:0.044999 440:-0.044436 441:0.005293 442:-0.066013 443:0.039325 444:-0.015515 445:0.055221 446:-0.030414 447:-0.000637 448:-0.049261 449:-0.033462 450:0.041287 451:-0.0081 452:0.050555 453:0.042049 454:-0.032055 455:-0.057771 456:-0.035881 457:0.021414 458:0.030413 459:0.113801 460:0.027386 461:0.078075 462:-0.014447 463:0.045711 464:0.03417 465:0.024003 466:0.011467 467:-0.080512 468:0.06228 469:0.00722 470:-0.011282 471:-0.045843 472:0.06777 473:-0.014821 474:-0.032126 475:0.039524 476:0.011581 477:-0.022708 478:0.027091 479:-0.002442 480:0.069275 481:-0.010994 482:-0.039721 483:0.018192 484:-0.036419 485:0.004083 486:-0.071474 487:0.105143 488:0.003587 489:-0.025999 490:0.029075 491:-0.086525 492:-0.006698 493:0.026215 494:-0.00137 495:-0.006899 496:0.034694 497:-0.033061 498:0.015869 499:-0.069986 500:0.050544 501:0.02347 502:0.032073 503:-0.020389 504:-0.046592 505:0.036722 506:0.016153 507:0.058216 508:-0.045408 509:-0.065069 510:0.025853 511:0.004354 
0.030203703504676063 0.57881450753477537 0.56103487406819041 0.42958693508710666 0:0.050568 1:0.074231 2:-0.053372 3:0.046139 4:0.017696 5:0.002381 6:-0.045537 7:0.10087 8:0.050075 9:0.002246 10:0.02814 11:0.024886 12:0.036433 13:0.034957 14:-0.071823 15:0.01751 16:0.070175 17:0.014539 18:0.010221 19:0.0054 20:0.014411 21:-0.019884 22:0.040207 23:-0.026477 24:0.039235 25:-0.003133 26:0.081116 27:0.000398 28:0.052384 29:0.0711 30:0.036156 31:-0.043079 32:-0.010589 33:0.01223 34:0.019451 35:-0.075459 36:-0.057389 37:-0.058795 38:-0.001742 39:0.005932 40:-0.058668 41:-0.022734 42:-0.016563 43:0.06034 44:-0.063684 45:0.006912 46:-0.052814 47:0.03491 48:-0.016795 49:0.013062 50:-0.057449 51:-0.076488 52:0.030886 53:-0.021319 54:-0.024326 55:0.046158 56:-0.038832 57:-0.046811 58:0.006931 59:-0.042293 60:0.026829 61:0.044894 62:-0.035408 63:0.098531 64:-0.000323 65:-0.031045 66:-0.019302 67:-0.06016 68:0.092809 69:-0.046674 70:-0.047497 71:-0.003597 72:-0.047297 73:0.035929 74:-0.017932 75:0.032809 76:-0.041295 77:-0.091102 78:0.05936 79:0.021151 80:0.061603 81:-0.063938 82:-0.016986 83:0.022145 84:0.042622 85:0.047894 86:-0.006818 87:0.019224 88:0.018431 89:-0.065147 90:-0.054002 91:-0.064246 92:0.03009 93:-0.020511 94:0.029054 95:0.04445 96:-0.03277 97:-0.013573 98:0.027549 99:0.033568 100:0.023499 101:0.067033 102:0.013009 103:0.074897 104:0.028892 105:0.029853 106:-0.070646 107:-0.053608 108:0.067764 109:-0.047038 110:0.044253 111:0.008527 112:-0.016795 113:-0.088472 114:-0.030733 115:-0.007923 116:-0.013649 117:0.054411 118:-0.02065 119:0.021315 120:0.065429 121:0.036679 122:-0.055164 123:-0.038898 124:-0.039227 125:-0.060734 126:0.067661 127:-0.051945 128:-0.034856 129:0.032154 130:-0.046322 131:0.048607 132:-0.003271 133:-0.049237 134:0.022014 135:-0.006831 136:-0.029455 137:-0.079374 138:0.079385 139:0.098619 140:0.002505 141:0.063194 142:-0.037572 143:-0.053616 144:0.036743 145:0.012606 146:0.012762 147:0.059747 148:-0.033778 149:-0.030802 150:0.036426 151:0.012381 152:0.070305 153:0.08753 154:0.002864 155:0.003437 156:-0.032439 157:0.002082 158:-0.016185 159:-0.081664 160:0.064051 161:0.097631 162:0.031185 163:0.031592 164:0.064942 165:0.031239 166:0.015752 167:0.040029 168:-0.083811 169:0.042129 170:0.003114 171:0.021564 172:0.03598 173:0.04883 174:0.034208 175:0.011057 176:-0.102538 177:0.006931 178:-0.015989 179:0.047437 180:0.03488 181:-0.044941 182:-0.043659 183:0.02215 184:0.072354 185:0.029438 186:0.014291 187:0.029972 188:-0.006972 189:-0.011862 190:-0.033493 191:0.062544 192:0.022163 193:-0.138987 194:0.067993 195:0.005529 196:-0.015169 197:-0.020604 198:0.097723 199:0.001686 200:0.05977 201:-0.012304 202:0.060971 203:-0.061061 204:0.076078 205:0.062039 206:-0.013348 207:-0.01702 208:0.016269 209:0.010681 210:-0.036327 211:0.0184 212:0.018307 213:-0.014349 214:0.001291 215:0.035681 216:-0.003219 217:0.004454 218:-0.021387 219:-0.042203 220:-0.031263 221:0.002089 222:0.046438 223:0.06732 224:0.042839 225:0.022067 226:-0.012747 227:-0.046847 228:0.009883 229:-0.077033 230:0.00091 231:-0.029464 232:0.016949 233:-0.066669 234:-0.037104 235:0.016799 236:0.020332 237:-0.005888 238:0.011478 239:0.051476 240:0.044503 241:0.015186 242:-0.01493 243:-0.051025 244:-0.000263 245:0.116424 246:-0.050014 247:-0.00123 248:-0.019644 249:0.021872 250:-0.066692 251:0.018488 252:0.088977 253:0.064848 254:-0.001394 255:-0.024076 256:0.013573 257:0.05157 258:0.019662 259:-0.014166 260:-0.014077 261:-0.030305 262:0.07001 263:-0.0462 264:-0.005537 265:-0.041361 266:0.031043 267:0.00746 268:-0.029881 269:-0.073664 270:0.04965 271:0.020726 272:0.079466 273:0.018159 274:-0.022154 275:0.130948 276:0.032781 277:-0.002419 278:-0.014552 279:-0.035277 280:0.016689 281:-0.008122 282:-0.016183 283:0.041631 284:0.000742 285:-0.031143 286:0.032617 287:0.021554 288:-0.03472 289:0.058119 290:-0.029381 291:-0.097434 292:-0.047008 293:0.034454 294:-0.019843 295:-0.023787 296:-0.109261 297:-0.034436 298:0.056664 299:-0.000242 300:0.039832 301:-0.000177 302:-0.018714 303:-0.028854 304:-0.025389 305:0.00394 306:0.031772 307:-0.013946 308:-0.083506 309:-0.01031 310:-0.087171 311:-0.045952 312:0.016553 313:-0.042838 314:0.026937 315:0.011206 316:-0.015062 317:0.050539 318:0.056265 319:-0.033629 320:-0.035121 321:-0.037637 322:-0.009162 323:-0.029281 324:-0.086095 325:0.074692 326:0.008126 327:0.043878 328:0.032279 329:-0.014366 330:0.095943 331:0.008337 332:-0.106516 333:0.043939 334:0.031684 335:0.057562 336:0.011574 337:-0.021827 338:-0.007213 339:0.002905 340:0.087002 341:-0.013965 342:0.031939 343:0.014614 344:-0.041102 345:-0.010488 346:-0.016758 347:0.024848 348:-0.039582 349:0.009548 350:-0.019017 351:-0.025173 352:0.060705 353:-0.050759 354:0.002864 355:-0.032934 356:0.037841 357:-0.015255 358:-0.06415 359:-0.051067 360:-0.036851 361:-0.02731 362:-0.017918 363:-0.011731 364:0.062085 365:0.027673 366:0.017606 367:-0.014516 368:-0.006988 369:0.059124 370:-0.050609 371:0.003663 372:0.047053 373:0.016502 374:0.018524 375:-0.003012 376:-0.048015 377:0.04915 378:-0.02626 379:0.019604 380:-0.023424 381:0.001532 382:-0.023526 383:0.019589 384:0.030114 385:-0.042995 386:0.050793 387:0.083277 388:-0.00883 389:0.01184 390:0.005249 391:0.017514 392:-0.092158 393:0.0346 394:-0.027954 395:0.006912 396:0.02745 397:0.057495 398:0.029711 399:-0.122691 400:0.007788 401:0.010797 402:0.056219 403:0.035955 404:0.024792 405:0.042142 406:-0.076808 407:0.015628 408:-0.00164 409:-0.044492 410:0.021168 411:-0.007868 412:-0.012374 413:-0.014079 414:-0.031973 415:-0.027376 416:0.106177 417:0.029915 418:0.022705 419:0.010615 420:0.087449 421:0.018415 422:0.026124 423:0.034975 424:0.01412 425:0.036559 426:-0.042546 427:-0.024121 428:0.063005 429:-0.03038 430:-0.023715 431:-0.051458 432:-0.036532 433:0.038052 434:0.03431 435:-0.007997 436:-0.031122 437:-0.063113 438:-0.005805 439:0.044705 440:-0.046009 441:-0.005857 442:-0.04393 443:0.075343 444:-0.001462 445:0.084061 446:-0.05695 447:-0.017687 448:0.0198 449:-0.027111 450:0.036444 451:-0.007921 452:0.07382 453:-0.004854 454:0.007811 455:-0.042897 456:-0.046327 457:0.028392 458:0.026998 459:0.052332 460:0.080089 461:0.087418 462:0.020104 463:0.040716 464:0.009327 465:-0.004108 466:0.017755 467:-0.085986 468:0.046387 469:-0.026007 470:-0.006403 471:-0.026369 472:0.041595 473:-0.044088 474:-0.041631 475:0.038041 476:-0.009619 477:-0.0432 478:0.005345 479:-0.029578 480:0.033567 481:0.034315 482:-0.032627 483:0.019428 484:-0.050759 485:0.007273 486:-0.059225 487:0.118387 488:-0.009161 489:-0.052402 490:0.062265 491:-0.073326 492:-0.013378 493:0.032562 494:0.052341 495:-0.01214 496:0.0172 497:-0.050856 498:0.010927 499:-0.085437 500:0.057321 501:0.006547 502:0.001841 503:-0.059203 504:-0.023198 505:0.041506 506:0.017943 507:0.046749 508:-0.014647 509:-0.040779 510:0.039025 511:0.008808 
0.42124001739270928 0 0 0 0:0.044253 1:0.069782 2:-0.072773 3:0.026318 4:0.028967 5:0.010028 6:-0.058033 7:0.106402 8:0.031553 9:-0.011539 10:0.015007 11:0.02174 12:0.016069 13:0.027539 14:-0.057916 15:0.005598 16:0.070614 17:0.031758 18:0.013082 19:-0.018915 20:0.026646 21:0.011375 22:0.014548 23:-0.026157 24:0.030973 25:-0.015202 26:0.090468 27:0.011612 28:0.072413 29:0.050808 30:0.042799 31:-0.066722 32:0.024568 33:0.021613 34:0.016749 35:-0.068253 36:-0.061726 37:-0.036193 38:0.020029 39:-0.005121 40:-0.05906 41:-0.054065 42:-0.012348 43:0.04067 44:-0.063186 45:-0.001719 46:-0.058116 47:0.021716 48:-0.029693 49:0.031796 50:-0.044723 51:-0.055225 52:0.028955 53:-0.047569 54:0.003735 55:0.057581 56:-0.031588 57:-0.066381 58:0.027936 59:-0.051328 60:0.015288 61:0.063887 62:-0.025069 63:0.105145 64:-0.012385 65:-0.054448 66:-0.008661 67:-0.02806 68:0.076425 69:-0.051942 70:-0.061237 71:-0.023385 72:-0.055828 73:0.02897 74:0.006188 75:0.026354 76:-0.034794 77:-0.093958 78:0.047151 79:-0.016362 80:0.055907 81:-0.043611 82:0.000776 83:0.026669 84:0.024486 85:0.024415 86:-0.001163 87:-0.006353 88:0.017058 89:-0.080971 90:-0.061887 91:-0.057533 92:0.028276 93:0.002591 94:0.011272 95:0.053485 96:-0.059486 97:-0.026275 98:0.016566 99:0.005075 100:0.043247 101:0.073495 102:0.029949 103:0.054416 104:0.002154 105:0.017141 106:-0.078419 107:-0.071956 108:0.064737 109:-0.044393 110:0.029867 111:0.028416 112:-0.020456 113:-0.062037 114:0.003791 115:0.013814 116:0.004124 117:0.06629 118:-0.001257 119:0.026915 120:0.05333 121:0.028937 122:-0.048519 123:-0.04378 124:-0.064208 125:-0.022417 126:0.074482 127:-0.060891 128:-0.023333 129:0.041865 130:-0.035028 131:0.069598 132:-0.027345 133:-0.069908 134:0.018609 135:-0.021417 136:-0.033761 137:-0.070557 138:0.073279 139:0.067234 140:-0.00987 141:0.069124 142:-0.02969 143:-0.078619 144:0.049848 145:-0.00146 146:0.020746 147:0.035671 148:-0.036176 149:-0.03543 150:0.031247 151:0.000415 152:0.073779 153:0.05257 154:0.02635 155:-0.007477 156:-0.037791 157:-0.016815 158:0.009306 159:-0.083529 160:0.036569 161:0.072952 162:0.037553 163:0.021856 164:0.057209 165:0.031021 166:0.023644 167:0.062257 168:-0.115535 169:0.048349 170:0.014173 171:0.036106 172:0.044375 173:0.053036 174:0.028066 175:0.019463 176:-0.099385 177:0.023553 178:-0.017221 179:0.058649 180:0.06087 181:-0.068391 182:-0.040043 183:0.009312 184:0.074706 185:0.024654 186:0.000894 187:0.036752 188:0.002513 189:-0.002793 190:-0.026746 191:0.060099 192:0.026775 193:-0.123333 194:0.070801 195:-0.007383 196:-0.017877 197:0.010802 198:0.065031 199:-0.007606 200:0.032273 201:-0.024102 202:0.089539 203:-0.073519 204:0.050949 205:0.038171 206:-0.003087 207:-0.010502 208:0.024715 209:0.012886 210:-0.003516 211:0.030933 212:-0.004305 213:0.013139 214:-0.010144 215:0.012329 216:-0.022135 217:-0.001552 218:-0.029054 219:-0.065465 220:-0.027671 221:0.022436 222:0.038098 223:0.091691 224:0.047123 225:-0.003882 226:-0.025457 227:-0.064812 228:0.015091 229:-0.085758 230:-0.012037 231:-0.04152 232:0.032274 233:-0.063958 234:-0.033568 235:-0.003984 236:0.018392 237:-0.010182 238:0.026118 239:0.039383 240:0.027819 241:-0.006237 242:-0.011307 243:-0.067905 244:-0.01679 245:0.12166 246:-0.034379 247:-0.019258 248:-0.030568 249:0.02607 250:-0.090278 251:-0.000945 252:0.07111 253:0.066642 254:-0.004861 255:-0.057478 256:0.031789 257:0.050348 258:0.027524 259:-0.03099 260:-0.023499 261:-0.02626 262:0.067017 263:-0.06226 264:-0.010321 265:-0.054917 266:0.060481 267:-0.005209 268:-0.022269 269:-0.068022 270:0.063761 271:0.031921 272:0.078344 273:-0.01886 274:-0.013053 275:0.128689 276:0.041413 277:-0.00739 278:-0.00415 279:-0.029861 280:0.011164 281:-0.030549 282:-0.013592 283:0.013187 284:0.013491 285:0.015989 286:0.030006 287:0.005267 288:-0.015083 289:0.043286 290:-0.027753 291:-0.093312 292:-0.052603 293:0.018807 294:-0.039716 295:-0.019919 296:-0.080016 297:-0.042078 298:0.091858 299:-0.004924 300:0.050803 301:-0.008159 302:-0.019084 303:-0.027073 304:-0.029502 305:-0.010078 306:0.036391 307:-0.01583 308:-0.090935 309:-0.004577 310:-0.076837 311:-0.042878 312:0.024401 313:-0.019744 314:0.028215 315:0.001812 316:-0.010777 317:0.024215 318:0.068901 319:-0.014531 320:-0.008881 321:-0.040543 322:-0.019714 323:-0.045295 324:-0.056508 325:0.053182 326:0.035139 327:0.031067 328:0.043091 329:-0.017617 330:0.07392 331:-0.007937 332:-0.107622 333:0.047254 334:-0.005312 335:0.041976 336:0.003242 337:-0.052956 338:-0.033971 339:0.029504 340:0.080035 341:-0.023829 342:0.033818 343:0.026148 344:-0.020791 345:-0.005213 346:-0.023089 347:0.026993 348:-0.021747 349:0.013682 350:-0.023952 351:-0.043 352:0.033608 353:-0.033323 354:0.00315 355:-0.033794 356:0.035322 357:-0.028811 358:-0.085104 359:-0.057695 360:-0.030356 361:-0.044982 362:-0.022955 363:0.009655 364:0.05459 365:0.035034 366:0.026296 367:0.006357 368:-0.007511 369:0.034695 370:-0.04262 371:-0.006899 372:0.035281 373:-0.011701 374:0.000719 375:-0.014154 376:-0.070411 377:0.034729 378:-0.03958 379:0.006635 380:-0.032647 381:0.006249 382:-0.01841 383:0.031299 384:0.031991 385:-0.062024 386:0.047402 387:0.073111 388:-0.01158 389:-0.012497 390:-0.0127 391:0.027576 392:-0.078216 393:0.014389 394:-0.038335 395:0.031574 396:0.018395 397:0.073007 398:0.055421 399:-0.093003 400:0.004819 401:0.017249 402:0.056634 403:0.038471 404:0.039848 405:0.048819 406:-0.08157 407:0.032555 408:0.016875 409:-0.038064 410:0.011185 411:0.020894 412:0.003572 413:0.008597 414:-0.032693 415:-0.045456 416:0.123474 417:0.047605 418:0.030132 419:-0.005825 420:0.04978 421:0.008102 422:0.013971 423:0.01104 424:-0.004441 425:0.010899 426:-0.042501 427:-0.003035 428:0.048255 429:-0.024554 430:-0.027144 431:-0.055398 432:-0.056715 433:0.02803 434:0.033003 435:-0.015427 436:-0.021275 437:-0.079199 438:0.011111 439:0.048723 440:-0.019451 441:-0.012457 442:-0.053014 443:0.024976 444:-0.009504 445:0.088581 446:-0.056711 447:0.010307 448:0.005677 449:-0.019945 450:0.029402 451:0.017871 452:0.06196 453:0.009856 454:-0.029204 455:-0.054285 456:-0.057246 457:0.010797 458:0.010421 459:0.091196 460:0.059561 461:0.078383 462:0.025068 463:0.048373 464:0.030403 465:-0.01266 466:0.023783 467:-0.084777 468:0.018679 469:-0.011032 470:-0.012885 471:-0.030784 472:0.055942 473:-0.019026 474:-0.064577 475:0.0233 476:0.015044 477:-0.042761 478:0.003048 479:-0.05467 480:0.046941 481:-0.00177 482:-0.042858 483:0.007145 484:-0.054301 485:0.015225 486:-0.065942 487:0.089962 488:-0.022912 489:-0.02402 490:0.051194 491:-0.08884 492:0.024878 493:0.032991 494:0.037602 495:-0.024576 496:0.040834 497:-0.05782 498:-0.014075 499:-0.078502 500:0.06333 501:0.014737 502:0.011979 503:-0.07349 504:-0.000254 505:0.044975 506:0.023165 507:0.058003 508:-0.025121 509:-0.040848 510:0.049007 511:0.0029 
0 0 0.38952642378611313 0 0:0.041478 1:0.079043 2:-0.047686 3:0.022878 4:0.019501 5:-0.017433 6:-0.025502 7:0.036891 8:0.028362 9:0.014591 10:0.040566 11:0.013082 12:0.00889 13:0.026379 14:-0.04642 15:0.030388 16:0.089201 17:0.038003 18:0.022606 19:0.005184 20:0.043017 21:-0.021092 22:0.029026 23:-0.026662 24:0.014004 25:-0.033992 26:0.079381 27:-0.009375 28:0.062669 29:0.044182 30:0.030893 31:-0.041113 32:0.030055 33:0.019808 34:0.021522 35:-0.092643 36:-0.058113 37:-0.058015 38:0.022697 39:0.009288 40:-0.076298 41:-0.048546 42:-0.040435 43:0.049616 44:-0.072379 45:0.014422 46:-0.049436 47:0.044006 48:-0.021445 49:0.069207 50:-0.053408 51:-0.05492 52:0.00272 53:-0.053766 54:0.008364 55:-0.001866 56:0.007312 57:-0.066289 58:0.007396 59:0.006148 60:0.010902 61:0.072008 62:-0.001452 63:0.093208 64:0.009297 65:-0.066829 66:-0.006835 67:-0.055651 68:0.04501 69:-0.057248 70:-0.033432 71:0.003932 72:-0.045768 73:0.049031 74:-0.013284 75:0.040872 76:-0.014677 77:-0.06124 78:0.057931 79:0.018222 80:0.028194 81:-0.083845 82:-0.039027 83:0.030603 84:0.052575 85:-0.019683 86:0.013701 87:0.039889 88:-0.007214 89:-0.083187 90:-0.065102 91:-0.087726 92:-0.003158 93:-0.005229 94:0.031125 95:0.025087 96:-0.064196 97:-0.005367 98:0.012226 99:0.047062 100:0.054204 101:0.060082 102:-0.014492 103:0.069145 104:0.013179 105:0.016881 106:-0.066704 107:-0.032235 108:0.076858 109:-0.042337 110:0.046529 111:-0.020911 112:-0.011542 113:-0.081955 114:-0.031595 115:0.01168 116:-0.005383 117:0.03972 118:0.025045 119:0.050565 120:0.084462 121:0.018185 122:-0.048999 123:-0.029286 124:-0.060187 125:-0.032208 126:0.065961 127:-0.073168 128:-0.023677 129:0.052274 130:-0.03737 131:0.035949 132:-0.021403 133:-0.069062 134:-0.000107 135:-0.00391 136:-0.037212 137:-0.053421 138:0.060268 139:0.055522 140:0.025477 141:0.06842 142:-0.034801 143:-0.090683 144:0.036732 145:0.011903 146:0.012429 147:0.031173 148:-0.048957 149:-0.0405 150:0.018856 151:0.036056 152:0.059379 153:0.045021 154:0.021464 155:-0.016164 156:-0.062922 157:0.012831 158:-0.016246 159:-0.080945 160:0.030257 161:0.081326 162:0.03247 163:0.056562 164:0.04854 165:0.022891 166:0.047781 167:0.086195 168:-0.11983 169:0.013383 170:0.00353 171:0.015218 172:0.059599 173:0.000353 174:0.017521 175:0.00156 176:-0.102192 177:-0.001155 178:0.007082 179:0.034793 180:0.046048 181:-0.065645 182:-0.019056 183:0.016138 184:0.063404 185:0.014588 186:-6e-06 187:0.013969 188:-0.058758 189:-0.000695 190:-0.072033 191:0.053887 192:0.06627 193:-0.10109 194:0.065502 195:-0.023793 196:-0.046536 197:-0.008432 198:0.074175 199:-0.002269 200:0.043438 201:-0.021045 202:0.066017 203:-0.065092 204:0.03786 205:0.011181 206:-0.022741 207:-0.031407 208:-0.010237 209:0.018861 210:-0.017828 211:0.023764 212:-0.027704 213:-0.014617 214:-0.010152 215:0.021046 216:0.030752 217:-0.004759 218:0.013689 219:-0.017888 220:0.001879 221:0.024116 222:0.05206 223:0.05579 224:0.047734 225:-0.014339 226:-0.006594 227:-0.052955 228:-0.030804 229:-0.048636 230:-0.00956 231:-0.033991 232:0.017148 233:-0.065103 234:-0.03371 235:-0.000209 236:0.025768 237:0.002532 238:0.033578 239:0.031691 240:0.048613 241:-0.028653 242:-0.003926 243:-0.061019 244:0.013743 245:0.113207 246:-0.061557 247:-0.008578 248:0.011232 249:-0.012886 250:-0.072531 251:-0.004349 252:0.081627 253:0.063532 254:-0.05095 255:-0.030569 256:0.007093 257:0.068533 258:0.031768 259:0.01273 260:-0.049102 261:-0.025723 262:0.054281 263:-0.03598 264:-0.007343 265:-0.051445 266:0.042895 267:-0.011309 268:0.002727 269:-0.065655 270:0.094605 271:0.017943 272:0.075874 273:-0.004519 274:-0.037675 275:0.130212 276:0.014399 277:0.02023 278:-0.038382 279:-0.031839 280:0.023131 281:-0.01759 282:-0.009635 283:0.037146 284:0.017601 285:-0.015754 286:0.042865 287:-0.03168 288:-0.040248 289:0.02968 290:-0.041622 291:-0.108317 292:-0.044085 293:-0.00082 294:-0.034364 295:-0.024108 296:-0.089176 297:-0.032637 298:0.083736 299:-0.019465 300:0.057833 301:-0.03057 302:-0.03646 303:-0.027612 304:-0.042599 305:0.003685 306:0.039045 307:-0.003954 308:-0.082211 309:-0.021306 310:-0.08858 311:-0.06293 312:0.013359 313:-0.032634 314:0.011915 315:1.5e-05 316:-0.028317 317:-0.00605 318:0.053263 319:-0.043774 320:-0.039055 321:-0.025163 322:-0.033121 323:-0.040165 324:-0.045679 325:0.054245 326:0.015496 327:0.065906 328:0.04209 329:0.001131 330:0.06339 331:0.024513 332:-0.126771 333:0.05031 334:-0.005766 335:0.047191 336:0.009213 337:-0.063016 338:-0.065133 339:0.054231 340:0.050334 341:-0.027579 342:0.027823 343:0.036071 344:-0.000685 345:0.017421 346:-0.034699 347:0.016682 348:-0.019231 349:0.022724 350:-0.012464 351:-0.033287 352:0.035592 353:-0.003966 354:-0.009961 355:-0.025158 356:0.028761 357:0.012062 358:-0.057358 359:-0.044057 360:-0.041717 361:-0.038157 362:-0.048817 363:-0.027531 364:0.013855 365:0.059205 366:-0.000343 367:-0.000492 368:-0.038896 369:0.046127 370:-0.062239 371:0.015556 372:0.017086 373:0.027241 374:0.045698 375:-0.01464 376:-0.052193 377:0.034378 378:-0.056702 379:0.024842 380:-0.02313 381:0.006709 382:-0.060796 383:0.025697 384:0.030125 385:-0.04723 386:0.037487 387:0.08975 388:-0.032328 389:0.025517 390:-0.004332 391:0.02599 392:-0.098607 393:0.02582 394:-0.017669 395:-0.009715 396:-0.014563 397:0.037743 398:0.055252 399:-0.108015 400:0.011499 401:0.013385 402:0.059989 403:0.034345 404:0.030187 405:0.024313 406:-0.062308 407:0.008387 408:-0.001758 409:-0.047474 410:-6.8e-05 411:0.003428 412:-0.017704 413:0.027746 414:-0.045707 415:-0.053871 416:0.104126 417:0.065862 418:0.032125 419:0.002433 420:0.051884 421:0.00129 422:0.002402 423:0.021854 424:0.025437 425:0.049059 426:-0.015865 427:-0.010324 428:0.046355 429:0.022021 430:-0.041204 431:-0.051468 432:-0.044348 433:0.004535 434:0.008531 435:-0.007706 436:-0.05712 437:-0.074408 438:-0.002917 439:0.044226 440:-0.026192 441:-0.000388 442:-0.040641 443:0.021954 444:-0.00921 445:0.045812 446:-0.025735 447:0.01209 448:-0.036224 449:-0.025803 450:0.043711 451:-0.001928 452:0.06889 453:0.021907 454:-0.027108 455:-0.06969 456:-0.039676 457:0.051491 458:0.028066 459:0.117188 460:0.050399 461:0.077155 462:0.012055 463:0.049593 464:0.043198 465:0.023153 466:0.031428 467:-0.079428 468:0.050223 469:-0.022408 470:0.017696 471:-0.046801 472:0.070536 473:-0.031139 474:-0.075577 475:0.021853 476:0.025798 477:-0.037443 478:0.011019 479:-0.024793 480:0.062368 481:0.008367 482:-0.022836 483:0.025852 484:-0.053142 485:0.033102 486:-0.042665 487:0.098227 488:0.008736 489:-0.034917 490:0.036666 491:-0.068443 492:-0.008946 493:0.0117 494:0.049248 495:-0.017991 496:0.01979 497:-0.029057 498:-0.011541 499:-0.106166 500:0.035688 501:0.01051 502:0.035326 503:-0.036731 504:-0.013744 505:0.039541 506:0.017312 507:0.076074 508:-0.051457 509:-0.060311 510:0.028083 511:-0.005847 
0.14249746912318922 0.19706931406675654 0 0 0:0.018852 1:0.061835 2:-0.07358 3:0.009594 4:0.017756 5:-0.020153 6:-0.021286 7:0.039014 8:0.038451 9:0.000546 10:0.025111 11:0.013704 12:0.004175 13:0.019108 14:-0.05766 15:0.017996 16:0.073128 17:0.05436 18:0.003539 19:0.008588 20:0.026709 21:-0.02861 22:0.038054 23:-0.039941 24:0.005075 25:-0.019961 26:0.062544 27:-0.010236 28:0.062686 29:0.055554 30:0.058595 31:-0.022552 32:0.027433 33:0.014987 34:-0.002525 35:-0.06154 36:-0.055421 37:-0.061626 38:-0.001993 39:0.025324 40:-0.073368 41:-0.064692 42:-0.02571 43:0.05627 44:-0.062178 45:-0.023386 46:-0.067699 47:0.075351 48:-0.051643 49:0.040452 50:-0.063126 51:-0.056508 52:0.035678 53:-0.012442 54:0.000729 55:0.011054 56:-0.017934 57:-0.027599 58:0.030502 59:-0.024586 60:0.024494 61:0.09573 62:-0.012575 63:0.097225 64:0.011112 65:-0.055161 66:-0.022781 67:-0.058888 68:0.024367 69:-0.019521 70:-0.058589 71:-0.021178 72:-0.019776 73:0.02384 74:-0.025852 75:0.024225 76:-0.028509 77:-0.075369 78:0.040352 79:0.012038 80:0.034854 81:-0.05919 82:-0.026541 83:0.0466 84:0.06988 85:-0.024267 86:-0.011832 87:0.04658 88:-0.015441 89:-0.086483 90:-0.017613 91:-0.071182 92:0.036654 93:-0.01544 94:0.04971 95:0.040522 96:-0.050663 97:0.00633 98:0.02279 99:0.059356 100:0.070742 101:0.047129 102:-0.021298 103:0.072073 104:0.00217 105:0.028711 106:-0.045276 107:-0.025633 108:0.079097 109:-0.024899 110:0.050872 111:0.017867 112:-0.023926 113:-0.098538 114:-0.041961 115:0.004849 116:-0.023124 117:0.021561 118:0.005093 119:0.055719 120:0.066463 121:-0.006817 122:-0.054379 123:-0.007643 124:-0.081095 125:-0.048565 126:0.07113 127:-0.073079 128:-0.043103 129:0.046898 130:-0.055168 131:0.031596 132:-0.006885 133:-0.062289 134:-0.015233 135:0.014182 136:-0.002245 137:-0.072543 138:0.054007 139:0.041808 140:-0.00107 141:0.042969 142:-0.056997 143:-0.040369 144:0.046544 145:-0.013264 146:0.024781 147:0.021173 148:-0.05867 149:-0.032867 150:0.021534 151:0.044409 152:0.054874 153:0.049249 154:0.051692 155:-0.016516 156:-0.08073 157:0.008361 158:-0.002476 159:-0.085234 160:0.067101 161:0.077787 162:0.050223 163:0.057196 164:0.058155 165:0.022675 166:0.015221 167:0.076357 168:-0.118054 169:0.003739 170:0.004945 171:-0.01162 172:0.038508 173:0.025786 174:0.005397 175:0.014673 176:-0.096335 177:0.012917 178:-0.030756 179:0.022137 180:0.023076 181:-0.053556 182:-0.043566 183:-0.000386 184:0.077183 185:0.02174 186:0.008013 187:0.023215 188:-0.032433 189:-0.001018 190:-0.0565 191:0.028711 192:0.044106 193:-0.127467 194:0.064354 195:-0.013659 196:-0.037307 197:0.015964 198:0.071366 199:0.001098 200:0.051327 201:-0.011043 202:0.050691 203:-0.083475 204:0.051385 205:0.002899 206:0.01033 207:-0.040315 208:0.010361 209:0.039889 210:-0.012318 211:0.038186 212:-0.006082 213:-0.003009 214:-0.020128 215:0.024525 216:0.022954 217:0.027455 218:0.008047 219:-0.033468 220:-0.012423 221:0.008074 222:0.056245 223:0.057143 224:0.0372 225:-0.03707 226:-0.008449 227:-0.059796 228:-0.060106 229:-0.073015 230:0.00079 231:-0.029163 232:0.010659 233:-0.053208 234:-0.036446 235:-0.009875 236:0.026902 237:0.017262 238:-0.000624 239:-0.003441 240:0.044302 241:-0.039146 242:-0.013342 243:-0.043117 244:0.007738 245:0.120818 246:-0.030198 247:-0.005954 248:-0.020728 249:0.023206 250:-0.076384 251:-0.022882 252:0.089966 253:0.057284 254:-0.035448 255:-0.030022 256:0.003565 257:0.058986 258:0.070154 259:0.01674 260:-0.036068 261:-0.024855 262:0.066335 263:-0.037194 264:0.019505 265:-0.063022 266:0.028618 267:0.004318 268:-0.023623 269:-0.082111 270:0.098481 271:-0.011959 272:0.044509 273:-0.003286 274:-0.011172 275:0.130441 276:0.050234 277:0.032527 278:-0.019558 279:-0.017653 280:0.027623 281:-0.025127 282:-0.011063 283:0.029221 284:0.006638 285:-0.03305 286:0.024983 287:-0.001171 288:-0.013328 289:0.017935 290:-0.021852 291:-0.090428 292:-0.056291 293:0.001207 294:-0.04542 295:-0.026811 296:-0.051923 297:-0.049193 298:0.069325 299:0.014873 300:0.048233 301:-0.002035 302:-0.029628 303:-0.029913 304:-0.001186 305:0.026747 306:0.033517 307:-0.00964 308:-0.075171 309:-0.033241 310:-0.091861 311:-0.036479 312:0.012673 313:-0.026111 314:0.006462 315:0.023326 316:-0.040123 317:-0.014839 318:0.052872 319:-0.039933 320:-0.039334 321:-0.043287 322:-0.024747 323:0.000706 324:-0.075069 325:0.049076 326:0.013711 327:0.066487 328:0.01524 329:-0.009852 330:0.081884 331:0.024949 332:-0.11688 333:0.04508 334:-0.006456 335:0.040886 336:0.015886 337:-0.056986 338:-0.051617 339:0.002079 340:0.043761 341:-0.023492 342:0.0252 343:0.008879 344:0.009747 345:-0.003575 346:-0.022215 347:0.018375 348:0.012102 349:0.026547 350:-0.013352 351:-0.029321 352:0.038209 353:-0.021943 354:-0.004334 355:-0.015218 356:0.020986 357:0.001622 358:-0.015691 359:-0.014462 360:-0.058007 361:-0.029123 362:-0.050842 363:-0.027259 364:0.039414 365:0.068041 366:0.011506 367:0.000264 368:-0.017624 369:0.0066 370:-0.040274 371:-0.015832 372:0.01352 373:0.062932 374:0.030488 375:0.003706 376:-0.062597 377:0.060588 378:-0.039862 379:0.016411 380:0.008067 381:0.004797 382:-0.045257 383:0.034212 384:0.017391 385:-0.058626 386:0.03854 387:0.08029 388:-0.030593 389:0.039235 390:0.017426 391:0.002188 392:-0.069649 393:0.028986 394:-0.022568 395:-0.007988 396:-0.024007 397:0.052959 398:0.059303 399:-0.136481 400:0.033042 401:0.005884 402:0.052622 403:0.016962 404:0.027045 405:0.045113 406:-0.074653 407:-0.007869 408:0.003879 409:-0.03526 410:0.028023 411:0.027297 412:-0.002622 413:-0.005628 414:-0.032882 415:-0.049137 416:0.124244 417:0.070895 418:-0.000384 419:-0.002479 420:0.047735 421:-0.003307 422:-0.000369 423:0.027958 424:0.029492 425:0.05737 426:-0.009081 427:0.016347 428:0.058405 429:0.01551 430:-0.060433 431:-0.042756 432:-0.042459 433:-0.016252 434:0.017127 435:-0.002078 436:-0.061199 437:-0.076014 438:-0.018259 439:0.028537 440:-0.009956 441:-0.008045 442:-0.060865 443:0.053464 444:-0.03012 445:0.056573 446:-0.05108 447:0.021712 448:-0.035229 449:-0.00344 450:0.052663 451:0.006829 452:0.02747 453:-0.001737 454:-0.016628 455:-0.05969 456:-0.074826 457:0.026315 458:0.063104 459:0.106691 460:0.051646 461:0.100903 462:0.005958 463:0.045986 464:0.061759 465:0.038789 466:0.037315 467:-0.075849 468:0.0343 469:0.014822 470:0.005127 471:-0.033091 472:0.053105 473:-0.047057 474:-0.067141 475:0.018019 476:0.004074 477:-0.026612 478:0.034216 479:-0.03195 480:0.055194 481:-0.034311 482:-0.028471 483:0.046226 484:-0.053836 485:0.030238 486:-0.066574 487:0.112176 488:0.010695 489:-0.062709 490:0.053923 491:-0.063012 492:-0.009891 493:0.031604 494:0.048042 495:-0.027071 496:-0.004704 497:-0.039739 498:0.000989 499:-0.104623 500:-0.01486 501:0.01231 502:-0.001596 503:-0.024914 504:-0.019048 505:0.054464 506:0.02505 507:0.049755 508:-0.0511 509:-0.065126 510:0.064848 511:-0.008581 
0 0.41293740070824669 1 0 0:0.032526 1:0.067033 2:-0.088883 3:0.039533 4:0.036954 5:-0.01119 6:-0.014695 7:0.032013 8:-0.003093 9:0.006288 10:0.023224 11:-0.021031 12:0.002109 13:-0.024268 14:-0.031487 15:0.075527 16:0.067303 17:0.040057 18:0.001971 19:0.017172 20:0.046541 21:-0.04005 22:0.010814 23:0.035605 24:0.026925 25:-0.007671 26:0.099655 27:-0.009236 28:0.038563 29:0.056941 30:0.020726 31:-0.027016 32:-0.023423 33:0.042498 34:0.01936 35:-0.063057 36:0.004618 37:-0.086019 38:0.011998 39:0.012993 40:-0.060816 41:-0.012222 42:-0.0275 43:0.010562 44:-0.048322 45:0.03737 46:-0.051541 47:0.021363 48:0.019198 49:0.092895 50:-0.070055 51:-0.052401 52:0.000625 53:-0.04687 54:-0.00977 55:-0.014895 56:0.030495 57:-0.103939 58:0.058474 59:0.00034 60:0.023115 61:0.0794 62:0.005231 63:0.062639 64:0.033915 65:-0.053265 66:-0.011349 67:-0.065244 68:0.048483 69:-0.035983 70:-0.075571 71:-0.019555 72:-0.034318 73:0.072988 74:0.011215 75:0.057585 76:-0.048668 77:-0.058483 78:0.02847 79:0.004552 80:0.034405 81:-0.084944 82:-0.026442 83:0.042219 84:0.052819 85:-0.030592 86:0.00165 87:0.056468 88:-0.006411 89:-0.102428 90:-0.059304 91:-0.055104 92:-0.003106 93:-0.004943 94:0.038853 95:0.019829 96:-0.048152 97:-0.044739 98:0.02184 99:0.073006 100:0.012458 101:0.042853 102:-0.040661 103:0.064829 104:-0.046626 105:-0.030797 106:-0.082167 107:-0.066611 108:0.068735 109:-0.032356 110:0.038701 111:-0.028246 112:-0.01912 113:-0.072938 114:-0.038022 115:-0.029091 116:-0.05348 117:0.014081 118:-0.0037 119:0.056023 120:0.080289 121:0.013306 122:-0.029454 123:-0.032882 124:-0.022764 125:-0.046975 126:0.043552 127:-0.049213 128:-0.02708 129:0.035387 130:-0.036636 131:-0.021805 132:-0.025625 133:-0.04822 134:-0.005323 135:0.022484 136:-0.006114 137:-0.056212 138:0.020909 139:0.064815 140:0.047746 141:0.050541 142:-0.045334 143:-0.055759 144:0.073724 145:-0.008133 146:-0.0096 147:0.032072 148:0.005867 149:-0.029619 150:-0.011529 151:0.059932 152:0.088631 153:0.054146 154:0.005163 155:-0.021236 156:-0.060662 157:0.03112 158:-0.011495 159:-0.084427 160:0.018788 161:0.075489 162:0.011606 163:0.08177 164:0.023995 165:0.022998 166:0.016044 167:0.067067 168:-0.068429 169:-0.038662 170:0.026248 171:0.03234 172:0.056692 173:0.034852 174:0.051237 175:0.025907 176:-0.075543 177:0.010939 178:-0.022446 179:0.027973 180:0.001394 181:-0.057822 182:-0.01316 183:0.0061 184:0.030677 185:0.001202 186:-0.004783 187:0.00821 188:-0.049642 189:-0.018445 190:-0.084483 191:0.043634 192:0.085929 193:-0.108567 194:0.025661 195:-0.035918 196:-0.03569 197:0.002887 198:0.066832 199:0.031573 200:-6e-05 201:0.007049 202:0.045096 203:-0.038947 204:0.090145 205:0.025267 206:-0.01768 207:-0.048945 208:-0.037227 209:0.040168 210:0.010662 211:0.029669 212:-0.016888 213:0.004047 214:0.001644 215:0.082295 216:0.009206 217:-0.02725 218:0.022316 219:-0.041405 220:0.025104 221:-0.006549 222:0.020614 223:0.070077 224:0.061406 225:-0.017404 226:-0.005647 227:-0.056101 228:-0.024033 229:-0.009825 230:-0.007382 231:-0.014289 232:0.026022 233:-0.072822 234:0.000621 235:-0.016419 236:0.035186 237:0.042649 238:0.009021 239:0.008128 240:0.064629 241:-0.001022 242:-0.004807 243:-0.063785 244:0.008953 245:0.108417 246:-0.04883 247:0.02207 248:0.033747 249:0.011636 250:-0.089896 251:-0.013131 252:0.058645 253:0.041412 254:-0.009959 255:-0.061101 256:-0.008272 257:0.06342 258:0.047683 259:0.007022 260:-0.051215 261:-0.027512 262:0.030658 263:-0.072484 264:0.001925 265:-0.097687 266:-0.011974 267:-0.010857 268:-0.027798 269:-0.12027 270:0.096016 271:0.005195 272:0.056349 273:0.007007 274:-0.022304 275:0.115585 276:-0.013178 277:0.034835 278:-0.037817 279:0.019141 280:0.020718 281:-0.045906 282:-0.001061 283:0.063845 284:-0.005788 285:-0.042874 286:0.046458 287:-0.037181 288:-0.037275 289:0.066482 290:-0.074559 291:-0.083336 292:-0.060554 293:0.021189 294:-0.004839 295:-0.048034 296:-0.082677 297:-0.010562 298:0.050101 299:-0.016571 300:0.064483 301:-0.042323 302:-0.02626 303:-0.009499 304:-0.036067 305:0.040287 306:0.056224 307:-0.001263 308:-0.05875 309:-0.030361 310:-0.070109 311:-0.0618 312:-0.018341 313:-0.066531 314:-0.012738 315:0.04722 316:-0.010402 317:0.000474 318:0.077595 319:-0.063628 320:-0.013991 321:-0.067891 322:-0.006818 323:-0.045107 324:-0.049362 325:0.062065 326:0.016243 327:0.037223 328:-0.004206 329:-0.004189 330:0.074286 331:-0.012743 332:-0.093971 333:0.025946 334:-0.018714 335:0.071749 336:-0.010003 337:-0.051291 338:-0.035383 339:0.030632 340:0.033894 341:-0.015491 342:0.033229 343:0.030501 344:0.010095 345:0.009543 346:-0.01137 347:0.051803 348:-0.024048 349:0.049213 350:-0.048414 351:-0.021008 352:0.035199 353:0.006884 354:-0.007606 355:-0.028381 356:0.008549 357:0.001067 358:-0.033292 359:-0.046481 360:-0.027078 361:-0.042096 362:-0.030849 363:-0.057275 364:0.020667 365:0.07469 366:-0.003382 367:-0.002098 368:-0.039637 369:0.045904 370:-0.015906 371:0.046012 372:-0.001795 373:0.002059 374:-0.003998 375:-0.021107 376:-0.026195 377:0.015186 378:-0.049896 379:0.004511 380:-0.028244 381:0.003343 382:-0.024529 383:0.013228 384:0.015601 385:-0.019094 386:0.023405 387:0.068226 388:-0.006975 389:0.045437 390:-0.004727 391:0.053489 392:-0.075697 393:0.007794 394:-0.025027 395:0.0016 396:0.002273 397:0.038534 398:0.022659 399:-0.122048 400:0.050814 401:-0.008555 402:0.015812 403:0.040814 404:0.035943 405:0.017991 406:-0.070012 407:0.011616 408:-0.02614 409:-0.009208 410:0.006746 411:-0.018866 412:0.001962 413:0.036692 414:-0.025039 415:-0.072506 416:0.112556 417:0.018324 418:-0.002149 419:0.046282 420:0.026001 421:-0.009109 422:-0.006075 423:0.004565 424:0.028227 425:0.084278 426:0.040989 427:0.014587 428:0.042929 429:0.045085 430:-0.036545 431:-0.042733 432:-0.064731 433:-0.024426 434:0.043368 435:-0.005188 436:-0.037067 437:-0.054836 438:0.011461 439:0.014255 440:-0.056156 441:0.008624 442:-0.077316 443:0.060323 444:-0.006033 445:0.039273 446:-0.021031 447:0.034781 448:-0.024025 449:-0.028758 450:0.074525 451:-0.028555 452:0.0669 453:0.0297 454:-0.005731 455:-0.035907 456:-0.029254 457:0.044007 458:0.046427 459:0.112657 460:0.052149 461:0.112854 462:-0.015271 463:0.043141 464:0.023098 465:0.034118 466:0.049856 467:-0.094453 468:0.069196 469:-0.021783 470:0.025989 471:-0.009951 472:0.030847 473:-0.0225 474:-0.025071 475:0.04603 476:-0.018519 477:-0.024269 478:0.024074 479:-0.04235 480:0.044072 481:0.000729 482:0.007895 483:0.020012 484:-0.052833 485:0.010345 486:-0.059658 487:0.086517 488:-0.012547 489:-0.02813 490:0.073181 491:-0.075687 492:0.004887 493:0.030263 494:0.06699 495:-0.015434 496:0.005829 497:-0.018382 498:0.026099 499:-0.076974 500:0.051133 501:0.009146 502:0.032504 503:-0.030199 504:-0.038338 505:0.032125 506:0.00848 507:0.083271 508:-0.031195 509:-0.03957 510:0.048326 511:0.004988 
0 1 0 0 0:0.03327 1:0.049872 2:-0.029579 3:0.013328 4:0.019431 5:0.003995 6:-0.002512 7:0.026612 8:0.02587 9:0.024226 10:0.040401 11:0.014797 12:0.018252 13:0.039944 14:-0.04573 15:0.012384 16:0.076199 17:0.028823 18:-0.00465 19:0.032445 20:0.034603 21:-0.011369 22:0.062571 23:-0.057208 24:-0.010287 25:-0.010111 26:0.080648 27:-0.022503 28:0.052087 29:0.027079 30:0.035412 31:-0.025536 32:0.012836 33:0.043363 34:0.003452 35:-0.079054 36:-0.062402 37:-0.080085 38:0.01937 39:0.016476 40:-0.022717 41:-0.047185 42:-0.026601 43:0.056804 44:-0.063784 45:0.038497 46:-0.054301 47:0.064048 48:-0.049577 49:0.022299 50:-0.065398 51:-0.044629 52:0.005714 53:-0.026512 54:-0.007729 55:-0.038857 56:0.020271 57:-0.071067 58:0.017828 59:-0.014002 60:0.011374 61:0.064995 62:-5.5e-05 63:0.076438 64:0.02155 65:-0.071777 66:-0.009154 67:-0.105425 68:0.026847 69:-0.026553 70:-0.031226 71:0.004724 72:-0.023387 73:0.030674 74:-0.009257 75:0.058748 76:-0.005872 77:-0.084559 78:0.008818 79:0.007476 80:0.031536 81:-0.071269 82:-0.046834 83:0.016815 84:0.058824 85:0.003013 86:0.031823 87:0.008657 88:-0.038378 89:-0.089805 90:-0.051954 91:-0.111488 92:-0.005276 93:-0.021455 94:0.044161 95:0.029422 96:-0.056262 97:0.020798 98:0.014664 99:0.047554 100:0.074731 101:0.052022 102:-0.014757 103:0.089989 104:-0.01799 105:0.005958 106:-0.031279 107:-0.001149 108:0.044321 109:-0.033146 110:0.039562 111:-0.02935 112:-0.023449 113:-0.113121 114:-0.040489 115:-0.013792 116:-0.060366 117:0.023354 118:0.048086 119:0.04279 120:0.092923 121:0.005465 122:-0.062365 123:-0.039911 124:-0.064939 125:-0.076127 126:0.069194 127:-0.046354 128:-0.036813 129:0.01478 130:-0.032033 131:0.003503 132:-0.065989 133:-0.015461 134:-0.030568 135:0.016123 136:-0.015183 137:-0.059471 138:0.031805 139:0.06163 140:0.030112 141:0.080803 142:-0.024854 143:-0.037125 144:0.057211 145:0.005149 146:0.041488 147:0.031832 148:-0.079064 149:-0.041922 150:0.016787 151:0.055111 152:0.029139 153:0.054183 154:0.026692 155:-0.022768 156:-0.078631 157:0.001289 158:-0.024705 159:-0.077492 160:0.039569 161:0.10252 162:0.016516 163:0.072443 164:0.05305 165:0.055398 166:0.026455 167:0.05581 168:-0.124821 169:-0.012108 170:0.025242 171:0.011931 172:0.069167 173:-0.005711 174:0.037132 175:0.00957 176:-0.111566 177:-0.027785 178:-0.01526 179:0.061709 180:0.043555 181:-0.046541 182:-0.021594 183:0.005202 184:0.075193 185:0.006374 186:0.011532 187:-0.009804 188:-0.023582 189:-0.050627 190:-0.053717 191:0.042531 192:0.043921 193:-0.127132 194:0.077376 195:-0.054403 196:-0.052903 197:-0.033769 198:0.059049 199:0.005771 200:0.043466 201:-0.010874 202:0.030507 203:-0.064889 204:0.02093 205:0.026797 206:-0.017897 207:-0.058243 208:0.009984 209:0.036184 210:0.012064 211:0.035511 212:-0.025002 213:-0.036789 214:-0.007669 215:0.019945 216:0.047298 217:-0.01772 218:0.040315 219:-0.013744 220:0.020096 221:-0.008662 222:0.043481 223:0.031539 224:0.046817 225:-0.001488 226:0.000361 227:-0.064044 228:-0.021 229:-0.068879 230:-0.013826 231:-0.001581 232:0.018966 233:-0.02305 234:-0.049083 235:-0.008991 236:0.043107 237:-0.012421 238:0.01173 239:0.048439 240:0.074223 241:-0.040309 242:-0.02338 243:-0.052157 244:0.009852 245:0.095273 246:-0.059991 247:-0.028255 248:-0.005553 249:-0.00713 250:-0.040158 251:-0.003725 252:0.075633 253:0.037895 254:-0.003761 255:-0.003948 256:-0.001663 257:0.050988 258:0.027014 259:0.035901 260:-0.047931 261:-0.00999 262:0.05477 263:-0.050862 264:-0.031897 265:-0.022161 266:0.056695 267:-0.024432 268:-0.004025 269:-0.096768 270:0.128959 271:0.041134 272:0.057343 273:-0.027668 274:0.004219 275:0.127162 276:0.018464 277:0.031284 278:0.002895 279:-0.006613 280:0.061386 281:-0.029915 282:0.006054 283:0.027439 284:-0.012868 285:-0.03979 286:0.042319 287:-0.010683 288:-0.024907 289:0.048888 290:-0.013118 291:-0.092341 292:-0.043026 293:0.005398 294:-0.033381 295:-0.032619 296:-0.115173 297:-0.034385 298:0.039173 299:-0.027343 300:0.060038 301:-0.042486 302:-0.045809 303:-0.02591 304:-0.026406 305:-0.006835 306:0.030205 307:0.009768 308:-0.08844 309:-0.016982 310:-0.088651 311:-0.088919 312:-0.012146 313:-0.030686 314:-0.029538 315:0.013139 316:-0.027375 317:-0.017349 318:0.063621 319:-0.01871 320:-0.041569 321:-0.002441 322:-0.012356 323:-0.055336 324:-0.060755 325:0.024613 326:0.021565 327:0.049052 328:0.028795 329:-0.021724 330:0.06508 331:-0.001866 332:-0.080638 333:0.04602 334:0.018889 335:0.056048 336:0.039044 337:-0.05601 338:-0.053381 339:-0.000378 340:0.020437 341:-0.030231 342:0.03706 343:0.036809 344:-0.010647 345:0.028749 346:-0.030619 347:0.000671 348:-0.032782 349:0.028066 350:-0.016091 351:-0.047322 352:0.054325 353:0.013219 354:0.003093 355:-0.022455 356:0.002523 357:0.012691 358:-0.056725 359:0.016963 360:-0.020062 361:-0.035826 362:-0.023514 363:-0.005246 364:0.015899 365:0.063198 366:-0.007551 367:0.023492 368:-0.022595 369:0.033025 370:-0.015675 371:0.000976 372:0.013622 373:0.033204 374:0.015926 375:-0.010991 376:-0.053876 377:0.051885 378:-0.030913 379:0.032571 380:-0.009892 381:-0.004805 382:-0.069702 383:-0.000351 384:0.021869 385:-0.024607 386:0.04563 387:0.083035 388:-0.016854 389:0.055465 390:0.020725 391:0.022744 392:-0.101643 393:0.050569 394:-0.029481 395:-0.009105 396:-0.025761 397:0.024641 398:0.051051 399:-0.126284 400:0.024596 401:0.018994 402:0.055901 403:0.043429 404:0.03045 405:0.048921 406:-0.081038 407:-0.009594 408:-0.021145 409:-0.044373 410:-0.004922 411:-0.021379 412:0.016693 413:0.036749 414:-0.028244 415:-0.084364 416:0.103151 417:0.051686 418:0.035898 419:-0.009038 420:0.032262 421:-0.008355 422:0.015062 423:-0.003847 424:0.024208 425:0.048125 426:-0.018188 427:-0.027024 428:0.058898 429:-0.009449 430:-0.027506 431:-0.019318 432:-0.024436 433:0.011845 434:0.016432 435:-0.020438 436:-0.068733 437:-0.056135 438:0.007181 439:0.034816 440:-0.0475 441:0.012303 442:-0.057618 443:0.066857 444:-0.021642 445:0.018931 446:-0.028474 447:-0.022597 448:-0.048973 449:-0.021607 450:0.020219 451:-0.015268 452:0.045582 453:0.013111 454:-0.013784 455:-0.050324 456:-0.027661 457:0.030799 458:0.02794 459:0.107857 460:0.044905 461:0.101526 462:0.031749 463:0.039077 464:0.040586 465:0.045848 466:0.028361 467:-0.043513 468:0.065739 469:-0.005211 470:0.038024 471:-0.032188 472:0.078144 473:-0.017695 474:-0.03849 475:0.037487 476:0.037922 477:-0.012868 478:0.007394 479:-0.013102 480:0.060637 481:0.010515 482:-0.021499 483:0.01835 484:-0.045289 485:0.037508 486:-0.031065 487:0.113395 488:0.014659 489:-0.033965 490:0.027643 491:-0.075553 492:0.014135 493:0.012267 494:0.015841 495:-0.015024 496:0.001104 497:-0.050417 498:0.036894 499:-0.078249 500:0.021446 501:0.002196 502:0.020563 503:-0.036448 504:-0.041215 505:0.057197 506:0.037176 507:0.044775 508:-0.073618 509:-0.068679 510:0.019587 511:0.009827 
0.033836952194671463 0.032612939067106793 0 0.39919649623203285 0:0.024519 1:0.058517 2:-0.059943 3:0.028753 4:0.033871 5:0.014949 6:-0.036074 7:0.054977 8:0.048205 9:0.009398 10:0.028936 11:0.017612 12:0.025076 13:0.028842 14:-0.078043 15:0.00357 16:0.091209 17:0.035914 18:0.026634 19:-0.004417 20:0.01096 21:-0.004323 22:0.013497 23:-0.05399 24:0.00862 25:-0.011841 26:0.078545 27:0.018978 28:0.083966 29:0.055146 30:0.039084 31:-0.04927 32:0.034116 33:0.029017 34:-0.001009 35:-0.079402 36:-0.081595 37:-0.050978 38:0.009516 39:0.026905 40:-0.073109 41:-0.066881 42:0.005258 43:0.049805 44:-0.065776 45:-0.002007 46:-0.05178 47:0.039745 48:-0.031822 49:0.023633 50:-0.045885 51:-0.053959 52:0.050875 53:-0.007369 54:0.02469 55:0.010521 56:-0.013467 57:-0.044422 58:0.016909 59:-0.042389 60:0.038276 61:0.051452 62:-0.013265 63:0.094552 64:-0.010292 65:-0.052087 66:-0.003168 67:-0.04888 68:0.027319 69:-0.03186 70:-0.051055 71:-0.030529 72:-0.040701 73:0.02957 74:-0.029962 75:0.039016 76:-0.011811 77:-0.072347 78:0.034405 79:-0.008529 80:0.029897 81:-0.045226 82:-0.010011 83:0.02543 84:0.046204 85:0.019303 86:-0.015872 87:-0.017203 88:0.001593 89:-0.084629 90:-0.028857 91:-0.082916 92:0.024456 93:-0.00126 94:0.043702 95:0.080448 96:-0.033718 97:0.014625 98:0.035827 99:0.033587 100:0.039866 101:0.043971 102:0.016727 103:0.048118 104:-0.013296 105:0.019548 106:-0.059219 107:-0.035242 108:0.061719 109:-0.020116 110:0.027872 111:0.00669 112:-0.021614 113:-0.09512 114:-0.026716 115:0.024239 116:-0.010616 117:0.054242 118:0.031055 119:0.043358 120:0.06661 121:0.017792 122:-0.050279 123:-0.038764 124:-0.07096 125:-0.05025 126:0.077431 127:-0.07151 128:-0.042113 129:0.048957 130:-0.048002 131:0.067981 132:-0.026197 133:-0.0388 134:-0.021795 135:-0.02001 136:-0.026301 137:-0.080148 138:0.07694 139:0.053353 140:-0.004147 141:0.050599 142:-0.034537 143:-0.067311 144:0.032704 145:0.001891 146:0.038869 147:0.022452 148:-0.076894 149:-0.041527 150:0.049744 151:0.042702 152:0.046049 153:0.084393 154:0.029125 155:-0.010435 156:-0.07331 157:-0.011633 158:0.024617 159:-0.080485 160:0.049447 161:0.09325 162:0.0504 163:0.038853 164:0.052305 165:0.038356 166:0.041966 167:0.044964 168:-0.107376 169:0.056325 170:0.00973 171:0.03534 172:0.064327 173:0.022216 174:0.0286 175:0.016911 176:-0.09878 177:0.018046 178:-0.009204 179:0.012016 180:0.046882 181:-0.044366 182:-0.067563 183:0.013223 184:0.065983 185:0.033859 186:0.012477 187:0.023365 188:0.002074 189:0.006811 190:-0.038487 191:0.063043 192:0.010385 193:-0.119884 194:0.043531 195:-0.018978 196:-0.031794 197:0.00761 198:0.052655 199:-0.025651 200:0.051754 201:-0.018587 202:0.073124 203:-0.075458 204:0.03067 205:0.022139 206:-0.002732 207:-0.036975 208:0.012887 209:0.018442 210:-0.008176 211:0.014069 212:0.003843 213:0.000746 214:0.009119 215:0.004717 216:0.000628 217:0.011776 218:-0.028329 219:-0.033735 220:-0.007239 221:-0.019642 222:0.053476 223:0.055846 224:0.013621 225:-0.026022 226:0.006229 227:-0.065295 228:-0.005831 229:-0.091513 230:0.013121 231:-0.026625 232:0.026181 233:-0.043286 234:-0.051029 235:-0.011749 236:0.029161 237:-0.016779 238:0.015908 239:0.04223 240:0.042746 241:-0.013844 242:-0.037054 243:-0.060285 244:-0.025891 245:0.100943 246:-0.038672 247:-0.033496 248:-0.040348 249:0.029633 250:-0.082871 251:-0.004169 252:0.098033 253:0.056432 254:-0.027241 255:-0.003671 256:0.012049 257:0.029807 258:0.044481 259:-0.009825 260:-0.046579 261:-0.011295 262:0.0782 263:-0.05343 264:-0.014667 265:-0.041592 266:0.046806 267:0.004129 268:-0.028245 269:-0.09085 270:0.103799 271:0.042162 272:0.062164 273:-0.00054 274:0.000222 275:0.138267 276:0.053425 277:0.033237 278:-0.013462 279:-0.018642 280:0.032265 281:-0.013164 282:-0.011081 283:0.037305 284:0.003144 285:-0.025514 286:0.02584 287:0.024296 288:-0.030797 289:0.032862 290:-0.011351 291:-0.090591 292:-0.064015 293:0.011814 294:-0.028518 295:-0.0282 296:-0.080702 297:-0.029699 298:0.095694 299:-0.017658 300:0.049415 301:-0.007284 302:-0.030709 303:-0.031376 304:-0.019481 305:0.009615 306:0.037621 307:0.018273 308:-0.08142 309:-0.005665 310:-0.097788 311:-0.041895 312:0.024052 313:-0.016359 314:0.010384 315:0.016241 316:-0.02013 317:0.010563 318:0.078034 319:-0.011931 320:-0.01819 321:-0.01872 322:-0.003853 323:-0.042013 324:-0.078594 325:0.048273 326:0.001825 327:0.038025 328:0.025742 329:-0.017894 330:0.071283 331:0.015686 332:-0.089465 333:0.040852 334:-0.006333 335:0.054041 336:0.010374 337:-0.062255 338:-0.044447 339:0.023275 340:0.058817 341:-0.010169 342:0.028908 343:0.001126 344:-0.003362 345:-0.01264 346:-0.051685 347:-0.002008 348:-0.00579 349:0.001884 350:-0.024778 351:-0.035274 352:0.02826 353:-0.024792 354:0.005296 355:-0.052385 356:0.054292 357:-0.006006 358:-0.060293 359:-0.015004 360:-0.055271 361:-0.047317 362:-0.025385 363:0.002624 364:0.046705 365:0.03937 366:-0.000376 367:0.007194 368:-0.00394 369:0.027563 370:-0.034876 371:-0.000308 372:-0.003378 373:0.026387 374:0.009924 375:-0.000537 376:-0.063551 377:0.056013 378:-0.036394 379:-0.00544 380:-0.011641 381:-0.00442 382:-0.043213 383:0.002951 384:0.01364 385:-0.056849 386:0.02867 387:0.077604 388:-0.0188 389:0.010715 390:0.006296 391:0.030961 392:-0.058151 393:0.047806 394:-0.036009 395:0.01052 396:0.000476 397:0.070297 398:0.091295 399:-0.115482 400:0.021957 401:0.018378 402:0.052633 403:0.030855 404:0.050079 405:0.049032 406:-0.082201 407:0.018786 408:0.003356 409:-0.055475 410:0.014669 411:0.02025 412:0.011823 413:-0.016671 414:-0.011285 415:-0.047351 416:0.119842 417:0.053603 418:0.024584 419:0.005905 420:0.065972 421:0.009979 422:0.042188 423:0.034318 424:0.000703 425:0.045441 426:-0.038916 427:0.01308 428:0.046796 429:-0.004111 430:-0.033051 431:-0.040789 432:-0.06118 433:0.023541 434:0.054876 435:-0.002977 436:-0.045591 437:-0.10179 438:0.008633 439:0.043471 440:-0.018883 441:-0.014096 442:-0.056745 443:0.04402 444:-0.028701 445:0.071105 446:-0.052881 447:0.006969 448:-0.019911 449:-0.023238 450:0.02314 451:0.014059 452:0.02764 453:-0.011048 454:-0.010532 455:-0.051778 456:-0.068364 457:-0.001788 458:0.019991 459:0.087188 460:0.049603 461:0.09133 462:0.009357 463:0.076231 464:0.042895 465:-0.005397 466:0.040672 467:-0.084604 468:0.015851 469:-0.005944 470:-0.005125 471:-0.061101 472:0.045837 473:0.001038 474:-0.055052 475:0.044912 476:0.034017 477:-0.041558 478:0.022989 479:-0.032144 480:0.062698 481:-0.00267 482:-0.053835 483:0.003019 484:-0.077127 485:0.016167 486:-0.069295 487:0.136292 488:-0.044899 489:-0.023145 490:0.054503 491:-0.045984 492:0.018605 493:0.027459 494:0.038618 495:-0.009482 496:0.020056 497:-0.050401 498:-0.001165 499:-0.07922 500:0.042038 501:0.012959 502:0.020732 503:-0.060079 504:-0.000856 505:0.058659 506:0.021727 507:0.024792 508:-0.031853 509:-0.052188 510:0.03301 511:0.025196 
0 0 1 0 0:0.029382 1:0.056628 2:-0.097617 3:0.009017 4:0.045242 5:-0.025048 6:-0.010637 7:0.041289 8:0.006553 9:0.030151 10:0.018337 11:-0.022168 12:-0.008274 13:-0.026526 14:-0.020789 15:0.043245 16:0.067747 17:0.045634 18:0.002957 19:0.023938 20:0.054306 21:-0.000145 22:0.024231 23:0.015151 24:-0.000962 25:0.008905 26:0.082174 27:-0.023948 28:0.035888 29:0.076395 30:0.014786 31:-0.035784 32:-0.001153 33:0.027015 34:0.030061 35:-0.08475 36:-0.014269 37:-0.070405 38:0.026978 39:0.007184 40:-0.079295 41:-0.01775 42:-0.046648 43:0.035973 44:-0.065778 45:0.029241 46:-0.040719 47:0.048126 48:-0.025577 49:0.090444 50:-0.071154 51:-0.052208 52:-0.002086 53:-0.055316 54:0.007784 55:-0.004644 56:0.022386 57:-0.092626 58:0.032002 59:0.005301 60:0.010962 61:0.083851 62:-0.009517 63:0.048266 64:0.01119 65:-0.097887 66:-0.01434 67:-0.052555 68:0.044368 69:-0.033239 70:-0.066387 71:-0.004331 72:-0.055738 73:0.034843 74:0.009016 75:0.046605 76:-0.033932 77:-0.072341 78:0.049609 79:-0.00755 80:0.020391 81:-0.084824 82:-0.005898 83:0.024659 84:0.010362 85:-0.041002 86:-0.015375 87:0.037161 88:-0.010489 89:-0.121593 90:-0.058746 91:-0.079593 92:0.003595 93:0.007324 94:0.039196 95:0.0198 96:-0.052197 97:-0.034155 98:0.013557 99:0.050216 100:0.023611 101:0.053106 102:-0.020415 103:0.08122 104:-0.019453 105:-0.024259 106:-0.09755 107:-0.052243 108:0.077413 109:-0.044224 110:0.042749 111:-0.010213 112:-0.012333 113:-0.092041 114:-0.010057 115:0.000975 116:-0.017924 117:0.031111 118:0.011371 119:0.044104 120:0.093948 121:0.004277 122:-0.017232 123:-0.033333 124:-0.025329 125:-0.013952 126:0.023313 127:-0.061287 128:-0.023455 129:0.034714 130:-0.023932 131:0.008299 132:-0.034424 133:-0.06684 134:-0.004638 135:-0.004737 136:-0.028064 137:-0.040708 138:0.047048 139:0.058918 140:0.008537 141:0.058615 142:-0.052777 143:-0.067234 144:0.075263 145:0.008896 146:0.019514 147:0.00389 148:-0.037474 149:-0.020697 150:-0.020291 151:0.033996 152:0.086572 153:0.034719 154:0.00471 155:-0.039315 156:-0.065834 157:0.028235 158:-0.010289 159:-0.100243 160:0.008871 161:0.055091 162:-0.012228 163:0.060074 164:0.041477 165:0.042149 166:0.034184 167:0.075442 168:-0.101901 169:-0.032032 170:0.047291 171:0.013048 172:0.06692 173:0.044929 174:0.037114 175:0.027063 176:-0.090161 177:0.012609 178:-0.006705 179:0.033905 180:0.028385 181:-0.064567 182:0.007358 183:0.001483 184:0.063453 185:0.011624 186:0.011275 187:0.0086 188:-0.041463 189:-0.033289 190:-0.058804 191:0.020509 192:0.087749 193:-0.094671 194:0.051233 195:-0.047307 196:-0.03606 197:0.020226 198:0.044625 199:0.023646 200:0.003477 201:-0.007216 202:0.057407 203:-0.072028 204:0.051968 205:0.033798 206:0.016948 207:-0.051567 208:-0.019158 209:0.019683 210:0.020134 211:0.031393 212:-0.032288 213:-0.006561 214:0.006395 215:0.056181 216:0.031615 217:-0.03287 218:0.025894 219:-0.052102 220:0.0008 221:-0.00226 222:0.02642 223:0.059264 224:0.06372 225:-0.029481 226:-0.014143 227:-0.051922 228:-0.000503 229:-0.02237 230:-0.022712 231:-0.009632 232:0.013379 233:-0.047758 234:-0.006387 235:-0.012395 236:0.009579 237:0.018092 238:0.015106 239:-0.0012 240:0.05357 241:-0.030707 242:-0.005023 243:-0.064166 244:0.020644 245:0.12242 246:-0.043373 247:0.01057 248:0.029276 249:0.002028 250:-0.064448 251:-0.003063 252:0.062561 253:0.029193 254:-0.019316 255:-0.079178 256:0.001688 257:0.064184 258:0.039493 259:-0.021316 260:-0.042113 261:-0.04944 262:0.043742 263:-0.041253 264:-0.014171 265:-0.077694 266:0.028183 267:-0.004649 268:-0.024583 269:-0.102795 270:0.1062 271:0.01757 272:0.052161 273:-0.007589 274:-0.044507 275:0.116296 276:0.021882 277:0.058311 278:-0.039233 279:-0.015965 280:0.033524 281:-0.041838 282:0.016417 283:0.044266 284:-0.0048 285:-0.020352 286:0.063935 287:-0.060595 288:-0.053294 289:0.048578 290:-0.074246 291:-0.096128 292:-0.069283 293:0.032951 294:-0.041242 295:-0.035797 296:-0.084467 297:-0.051926 298:0.054098 299:-0.01601 300:0.069127 301:-0.037313 302:-0.037333 303:-0.000145 304:-0.045481 305:0.022983 306:0.043245 307:-0.001693 308:-0.084675 309:-0.000544 310:-0.060822 311:-0.07003 312:-0.00765 313:-0.048179 314:-0.015319 315:0.033625 316:-0.041049 317:-0.005222 318:0.069057 319:-0.0618 320:-0.037841 321:-0.020929 322:-0.016854 323:-0.029578 324:-0.063375 325:0.060651 326:0.02272 327:0.034261 328:0.005607 329:-0.003476 330:0.071588 331:-0.009947 332:-0.094103 333:0.038789 334:-0.034014 335:0.027153 336:0.004687 337:-0.047185 338:-0.050035 339:0.037709 340:0.050043 341:-0.01831 342:0.02072 343:0.053489 344:0.010762 345:0.01 346:-0.026728 347:0.037214 348:-0.015132 349:0.017509 350:-0.034857 351:-0.017899 352:0.02096 353:-0.021386 354:-0.006002 355:-0.011658 356:0.012573 357:-0.019958 358:-0.052018 359:-0.053096 360:-0.021737 361:-0.031493 362:-0.044614 363:-0.031597 364:0.017074 365:0.072802 366:-0.000275 367:0.003439 368:-0.028311 369:0.04337 370:-0.04111 371:0.04308 372:0.005154 373:-0.020902 374:-0.005307 375:-0.024247 376:-0.046184 377:0.011701 378:-0.030567 379:-0.002316 380:-0.011168 381:-0.018805 382:-0.018463 383:0.022805 384:0.030794 385:-0.018369 386:0.047224 387:0.049613 388:-0.036137 389:0.045439 390:0.002074 391:0.046782 392:-0.080511 393:0.015021 394:-0.014673 395:0.006602 396:-0.003446 397:0.040438 398:0.058345 399:-0.119623 400:0.028479 401:0.006612 402:0.045429 403:0.070754 404:0.038496 405:0.015727 406:-0.085332 407:0.010388 408:-0.027635 409:-0.01361 410:-0.000772 411:-0.00514 412:-0.014976 413:0.033884 414:-0.049684 415:-0.057821 416:0.128746 417:0.025527 418:0.044392 419:0.006474 420:0.024859 421:-0.031155 422:-0.001601 423:-0.004492 424:0.020582 425:0.063569 426:0.027939 427:0.010051 428:0.01269 429:0.051569 430:-0.023505 431:-0.048154 432:-0.061297 433:-0.003425 434:0.030178 435:-0.014781 436:-0.027539 437:-0.045421 438:0.005576 439:0.054546 440:-0.06599 441:-0.004651 442:-0.078673 443:0.039217 444:0.010819 445:0.036379 446:-0.035983 447:0.017839 448:-0.023397 449:-0.045438 450:0.062207 451:0.009108 452:0.054864 453:0.033502 454:-0.009835 455:-0.060373 456:-0.048942 457:0.034548 458:0.029132 459:0.119915 460:0.058336 461:0.09844 462:-0.014862 463:0.050163 464:0.041455 465:0.034636 466:0.040988 467:-0.075634 468:0.052513 469:-0.023507 470:0.015737 471:-0.0122 472:0.044871 473:-0.003745 474:-0.050454 475:0.043868 476:-6.7e-05 477:-0.034702 478:-0.001336 479:-0.030527 480:0.045599 481:-0.001902 482:0.010459 483:0.017393 484:-0.029558 485:0.036104 486:-0.072698 487:0.072222 488:0.000406 489:-0.032555 490:0.060507 491:-0.084721 492:0.002842 493:0.028509 494:0.057924 495:0.005339 496:0.029475 497:-0.018271 498:0.006919 499:-0.084645 500:0.046183 501:-0.003284 502:0.060404 503:-0.042342 504:-0.004943 505:0.0435 506:-0.002445 507:0.095801 508:-0.035663 509:-0.035372 510:0.037674 511:-0.031083 
0 1 0 1 0:0.012512 1:0.068796 2:-0.098771 3:0.02067 4:0.038228 5:-0.010513 6:-0.022883 7:0.032579 8:-0.000254 9:0.022983 10:0.02673 11:-0.011979 12:0.00533 13:-0.015248 14:-0.025603 15:0.041046 16:0.082571 17:0.054633 18:0.022445 19:0.015987 20:0.024802 21:-0.013703 22:0.017951 23:-0.014346 24:0.027625 25:-0.016051 26:0.069136 27:-0.018407 28:0.061392 29:0.084392 30:0.006394 31:-0.032017 32:-0.000986 33:0.042078 34:0.010135 35:-0.072614 36:-0.041105 37:-0.102688 38:0.011559 39:0.022728 40:-0.082471 41:-0.027591 42:-0.029656 43:0.034202 44:-0.059187 45:0.043796 46:-0.052414 47:0.04509 48:-0.010429 49:0.058098 50:-0.06693 51:-0.069176 52:0.020894 53:-0.027192 54:0.004744 55:-0.027676 56:0.009031 57:-0.04312 58:0.036227 59:0.003467 60:0.033956 61:0.084813 62:0.00461 63:0.056966 64:0.010891 65:-0.062593 66:-0.017854 67:-0.066293 68:0.017068 69:-0.008154 70:-0.06454 71:-0.017256 72:-0.012206 73:0.043039 74:0.001298 75:0.044751 76:-0.038354 77:-0.053051 78:0.054312 79:0.018627 80:0.039311 81:-0.081761 82:-0.025718 83:0.043416 84:0.049946 85:-0.043088 86:-0.017745 87:0.065391 88:-0.004653 89:-0.088914 90:-0.029838 91:-0.067709 92:0.014458 93:-0.003356 94:0.054658 95:0.020338 96:-0.040715 97:0.01743 98:0.007587 99:0.073202 100:0.042635 101:0.033221 102:-0.017726 103:0.070023 104:-0.03077 105:-0.021419 106:-0.045915 107:-0.038173 108:0.077857 109:-0.025955 110:0.025484 111:-0.029402 112:-0.016868 113:-0.107273 114:-0.045328 115:-0.006404 116:-0.03848 117:0.026124 118:0.011391 119:0.066344 120:0.07893 121:-0.010423 122:-0.025302 123:-0.022416 124:-0.032817 125:-0.043505 126:0.051772 127:-0.054284 128:-0.03593 129:0.046901 130:-0.03842 131:-0.005094 132:-0.022288 133:-0.047542 134:-0.023249 135:0.02229 136:0.014525 137:-0.026422 138:0.027843 139:0.060073 140:0.014986 141:0.038483 142:-0.057995 143:-0.057645 144:0.08326 145:-0.014991 146:0.007928 147:0.007817 148:-0.02735 149:-0.035413 150:0.01421 151:0.054176 152:0.066252 153:0.075918 154:0.02004 155:-0.051332 156:-0.069649 157:0.000576 158:-0.019865 159:-0.087293 160:0.035462 161:0.070553 162:0.006394 163:0.074493 164:0.052925 165:0.020167 166:0.024344 167:0.07896 168:-0.103474 169:-0.00627 170:0.028838 171:0.012966 172:0.065209 173:0.028029 174:0.009405 175:0.009741 176:-0.055898 177:0.001749 178:-0.022321 179:0.016433 180:0.011333 181:-0.050048 182:-0.019806 183:0.024448 184:0.059432 185:0.020895 186:0.039433 187:-0.004279 188:-0.051718 189:-0.012032 190:-0.064565 191:0.02771 192:0.088706 193:-0.104136 194:0.053 195:-0.052945 196:-0.048312 197:-0.004248 198:0.062488 199:0.028038 200:0.029199 201:0.000777 202:0.044089 203:-0.054036 204:0.047389 205:0.013259 206:0.004156 207:-0.058959 208:-0.018902 209:0.053982 210:-0.005755 211:0.020074 212:-0.037455 213:-0.006031 214:-0.001113 215:0.063494 216:0.029328 217:0.003606 218:0.03479 219:-0.033788 220:-0.001902 221:-0.003117 222:0.034037 223:0.035465 224:0.064707 225:-0.027461 226:-0.004006 227:-0.044514 228:-0.029176 229:-0.008762 230:-0.000637 231:-0.026689 232:0.015241 233:-0.040744 234:-0.017747 235:-0.020906 236:0.022534 237:0.007298 238:-0.001743 239:0.008605 240:0.050497 241:-0.033302 242:-0.005012 243:-0.053366 244:0.034 245:0.127904 246:-0.074137 247:-0.002454 248:0.047379 249:0.007431 250:-0.051644 251:0.004712 252:0.053872 253:0.029232 254:-0.031348 255:-0.030114 256:0.013055 257:0.077456 258:0.081555 259:-0.000228 260:-0.084728 261:-0.037766 262:0.0479 263:-0.057718 264:0.011503 265:-0.076691 266:0.030387 267:0.010415 268:-0.034497 269:-0.094822 270:0.104118 271:-0.021126 272:0.036898 273:0.016294 274:-0.032722 275:0.118933 276:0.021357 277:0.062709 278:-0.04048 279:0.004678 280:0.054472 281:-0.015202 282:-0.004127 283:0.04233 284:-0.00596 285:-0.045188 286:0.023744 287:-0.037408 288:-0.046344 289:0.041242 290:-0.045592 291:-0.096919 292:-0.071159 293:0.006458 294:-0.041422 295:-0.045655 296:-0.055781 297:-0.024938 298:0.038109 299:0.003653 300:0.076178 301:-0.034029 302:-0.033854 303:0.000492 304:-0.026765 305:0.03103 306:0.059393 307:-0.00276 308:-0.090013 309:-0.036768 310:-0.097267 311:-0.051661 312:-0.000573 313:-0.038822 314:-0.000386 315:0.01656 316:-0.048271 317:-0.041191 318:0.077388 319:-0.053607 320:-0.032929 321:-0.036542 322:-0.02157 323:-0.026872 324:-0.072874 325:0.055189 326:0.029568 327:0.046947 328:-0.000497 329:0.00695 330:0.083734 331:0.004969 332:-0.101914 333:0.022614 334:-0.016093 335:0.043332 336:0.005699 337:-0.060572 338:-0.044474 339:0.015548 340:0.050026 341:0.014934 342:0.025218 343:0.022264 344:0.012275 345:0.021151 346:-0.037391 347:0.021971 348:-0.00461 349:0.045213 350:-0.008993 351:-0.022968 352:0.010583 353:0.00998 354:-0.013755 355:-0.024506 356:0.017922 357:0.020393 358:-0.023941 359:-0.045225 360:-0.045278 361:-0.055628 362:-0.053783 363:-0.034266 364:0.019628 365:0.06683 366:0.00992 367:-0.013594 368:-0.06617 369:0.048259 370:-0.048212 371:0.014056 372:-0.010461 373:0.007268 374:0.031127 375:-0.001019 376:-0.045773 377:0.032812 378:-0.04454 379:0.019528 380:0.007658 381:-0.024059 382:-0.047904 383:0.021079 384:0.019921 385:-0.031091 386:0.003361 387:0.065694 388:-0.017401 389:0.076441 390:0.007907 391:0.032795 392:-0.075873 393:0.005251 394:-0.009294 395:0.00626 396:-0.006229 397:0.019889 398:0.053792 399:-0.099344 400:0.02871 401:0.002661 402:0.046613 403:0.034412 404:0.035676 405:0.028849 406:-0.062647 407:0.004848 408:-0.012316 409:-0.023294 410:0.023834 411:0.00197 412:0.014928 413:0.025852 414:-0.041931 415:-0.074678 416:0.12447 417:0.065708 418:0.01592 419:0.027982 420:0.019051 421:-0.024876 422:0.006877 423:0.015814 424:0.035212 425:0.092328 426:0.018609 427:0.013132 428:0.030362 429:0.033689 430:-0.008601 431:-0.035661 432:-0.06245 433:-0.011459 434:0.03144 435:0.005402 436:-0.045576 437:-0.081537 438:-0.004987 439:0.031635 440:-0.043012 441:-0.00821 442:-0.077777 443:0.063395 444:-0.012079 445:0.048791 446:-0.060882 447:0.027708 448:-0.035536 449:-0.048801 450:0.089047 451:-0.004775 452:0.045019 453:0.011464 454:-0.00078 455:-0.072287 456:-0.046417 457:0.044537 458:0.057318 459:0.127659 460:0.028243 461:0.091679 462:-0.018997 463:0.047004 464:0.06306 465:0.052133 466:0.033117 467:-0.091248 468:0.055032 469:-0.005359 470:-0.00589 471:-0.031251 472:0.053371 473:-0.036327 474:-0.040843 475:0.035393 476:-0.009599 477:-0.040184 478:0.028529 479:-0.000732 480:0.055926 481:-0.008064 482:-0.000405 483:0.024708 484:-0.043203 485:0.00926 486:-0.085702 487:0.103279 488:0.001428 489:-0.034169 490:0.033776 491:-0.070293 492:-0.023309 493:0.037118 494:0.038379 495:-0.014632 496:0.014054 497:0.005084 498:0.025116 499:-0.083661 500:0.017218 501:0.013596 502:0.040379 503:-0.024889 504:-0.03595 505:0.039861 506:0.012424 507:0.055949 508:-0.048998 509:-0.060952 510:0.051637 511:-0.012863 
0 0.32144879648849439 0 0.24761056792499522 0:0.035758 1:0.080149 2:-0.029855 3:0.040305 4:0.034783 5:0.025322 6:-0.038055 7:0.035639 8:0.033239 9:0.003156 10:0.057372 11:0.005832 12:-0.010096 13:0.047789 14:-0.02949 15:0.003176 16:0.078274 17:0.033076 18:0.015733 19:0.004407 20:0.047465 21:-0.024907 22:0.041484 23:-0.04101 24:-0.011392 25:-0.029254 26:0.092707 27:0.011763 28:0.06519 29:0.040499 30:0.059405 31:-0.035202 32:0.033182 33:0.033889 34:0.003648 35:-0.085043 36:-0.049667 37:-0.060649 38:0.036049 39:0.008476 40:-0.052642 41:-0.047879 42:-0.022392 43:0.061421 44:-0.027077 45:-0.006023 46:-0.049587 47:0.055771 48:-0.048732 49:0.033351 50:-0.049153 51:-0.027363 52:0.042948 53:-0.020762 54:0.005029 55:-0.004619 56:0.005297 57:-0.045277 58:0.024665 59:-0.004649 60:0.037354 61:0.045457 62:-0.00533 63:0.065539 64:0.007899 65:-0.0442 66:-0.007526 67:-0.064017 68:0.032784 69:-0.032941 70:-0.044053 71:-0.006371 72:-0.045393 73:0.03825 74:0.003434 75:0.05097 76:-0.011172 77:-0.076847 78:0.014 79:0.034514 80:0.0349 81:-0.041805 82:-0.048898 83:0.036725 84:0.062238 85:-0.007761 86:0.019685 87:0.037425 88:-0.017858 89:-0.07052 90:-0.057317 91:-0.098348 92:0.009696 93:-0.011357 94:0.030848 95:0.048312 96:-0.058109 97:0.037129 98:0.034293 99:0.029399 100:0.071591 101:0.055645 102:-0.015987 103:0.040591 104:0.01977 105:0.040508 106:-0.062868 107:-0.026591 108:0.053936 109:-0.051628 110:0.06701 111:0.011099 112:-0.049571 113:-0.110349 114:0.003495 115:0.044594 116:-0.009524 117:0.008081 118:0.033327 119:0.046027 120:0.058082 121:0.042986 122:-0.039961 123:-0.01034 124:-0.060501 125:-0.064379 126:0.066468 127:-0.081631 128:-0.018195 129:0.04064 130:-0.043132 131:0.058155 132:0.000452 133:-0.058425 134:-0.01351 135:-0.008413 136:-0.021096 137:-0.073094 138:0.04711 139:0.03899 140:0.018816 141:0.063103 142:-0.039497 143:-0.052926 144:0.051109 145:0.007417 146:0.02593 147:0.047962 148:-0.071429 149:-0.053335 150:0.010925 151:0.049862 152:0.025872 153:0.034174 154:0.022536 155:-0.011059 156:-0.079058 157:0.009001 158:0.014261 159:-0.105154 160:0.065829 161:0.091581 162:0.054161 163:0.056252 164:0.062094 165:0.042089 166:0.011061 167:0.078536 168:-0.108 169:0.041904 170:0.024414 171:0.011096 172:0.062454 173:-0.024564 174:0.015518 175:-0.001556 176:-0.110719 177:-0.023146 178:-0.01396 179:0.038954 180:0.045385 181:-0.054501 182:-0.046395 183:-0.018915 184:0.072887 185:0.003586 186:-0.00988 187:0.02161 188:-0.027694 189:-0.009633 190:-0.070958 191:0.040711 192:0.06437 193:-0.115248 194:0.064658 195:-0.050798 196:-0.022169 197:-0.035096 198:0.057098 199:-0.001126 200:0.060868 201:-0.037432 202:0.082659 203:-0.071894 204:0.022826 205:0.024854 206:-0.024235 207:-0.061338 208:-0.004817 209:0.054943 210:-0.016663 211:0.030027 212:-0.020286 213:-0.030079 214:-0.012494 215:0.0287 216:0.039671 217:0.003413 218:0.020363 219:-0.053524 220:-0.015077 221:-0.01043 222:0.05541 223:0.045301 224:0.046093 225:-0.016189 226:0.020584 227:-0.047338 228:-0.030008 229:-0.07239 230:0.002657 231:-0.031832 232:0.025004 233:-0.028447 234:-0.024559 235:0.001907 236:0.035491 237:-0.005841 238:0.017003 239:0.045029 240:0.047868 241:-0.020461 242:0.007562 243:-0.052234 244:0.022222 245:0.104546 246:-0.059051 247:-0.036528 248:-0.028673 249:-0.00533 250:-0.059479 251:-0.002649 252:0.082807 253:0.051177 254:-0.000859 255:-0.03331 256:-0.001126 257:0.071348 258:0.069304 259:0.011245 260:-0.044623 261:-0.041119 262:0.082403 263:-0.049139 264:-0.022638 265:-0.03165 266:0.069191 267:-0.007735 268:-0.013608 269:-0.079238 270:0.096915 271:0.047787 272:0.044997 273:-0.004768 274:-0.007091 275:0.111991 276:0.016522 277:0.047964 278:-0.018736 279:-0.039952 280:0.022627 281:-0.01878 282:0.014233 283:0.023051 284:0.013618 285:-0.017199 286:0.062877 287:-0.009272 288:-0.040491 289:0.010072 290:0.00086 291:-0.078261 292:-0.048888 293:0.007027 294:-0.056343 295:0.007954 296:-0.092074 297:-0.025693 298:0.079915 299:-0.021916 300:0.071248 301:-0.01222 302:-0.054736 303:-0.02365 304:-0.010548 305:-0.007276 306:0.03593 307:0.023656 308:-0.089125 309:-0.013708 310:-0.0931 311:-0.073939 312:0.032586 313:-0.003505 314:-0.00046 315:0.013031 316:-0.023142 317:-0.024059 318:0.053182 319:-0.008028 320:-0.040821 321:-0.018586 322:-0.037359 323:-0.038488 324:-0.048591 325:0.023632 326:0.043267 327:0.060038 328:0.046064 329:0.014315 330:0.06699 331:0.00992 332:-0.121822 333:0.061015 334:-0.012827 335:0.042278 336:0.009127 337:-0.059981 338:-0.030178 339:0.007141 340:0.062109 341:-0.051861 342:0.03803 343:0.058967 344:-0.010194 345:-0.006819 346:-0.036395 347:-0.000888 348:-0.022521 349:0.020051 350:-0.018439 351:-0.055948 352:0.031806 353:0.007612 354:0.021644 355:0.008467 356:0.028711 357:0.010725 358:-0.078796 359:-5.1e-05 360:-0.04135 361:-0.039181 362:-0.052135 363:-0.015903 364:-0.001443 365:0.058055 366:-0.023304 367:0.010103 368:-0.008552 369:0.034937 370:-0.022485 371:0.009825 372:0.012123 373:0.025586 374:0.041508 375:0.003925 376:-0.055756 377:0.020682 378:-0.017788 379:0.016364 380:-0.021352 381:-0.012719 382:-0.066314 383:0.005726 384:0.008841 385:-0.046644 386:0.056619 387:0.078016 388:-0.023465 389:0.026704 390:0.006303 391:0.030909 392:-0.077721 393:0.032234 394:-0.033789 395:0.001563 396:-0.017442 397:0.059266 398:0.074919 399:-0.108904 400:0.020007 401:0.016809 402:0.08587 403:-0.005743 404:0.015009 405:0.044166 406:-0.069136 407:-0.010368 408:0.008698 409:-0.042985 410:0.039647 411:0.003567 412:-0.016586 413:0.013813 414:-0.048051 415:-0.066988 416:0.069662 417:0.058137 418:0.044626 419:-0.003105 420:0.059375 421:-0.010307 422:0.01652 423:0.006655 424:-0.000165 425:0.051588 426:-0.045004 427:0.002883 428:0.057587 429:-0.017573 430:-0.038855 431:-0.025944 432:-0.034416 433:0.000853 434:0.001005 435:-0.040471 436:-0.063764 437:-0.075577 438:-0.007988 439:0.035484 440:-0.01743 441:-0.00049 442:-0.063475 443:0.041296 444:-0.033636 445:0.059794 446:-0.053893 447:-0.000426 448:-0.016203 449:-0.024324 450:0.040899 451:-0.00922 452:0.020463 453:0.013862 454:-0.036072 455:-0.058794 456:-0.049892 457:0.045481 458:0.049195 459:0.121824 460:0.035188 461:0.07104 462:0.011771 463:0.053679 464:0.031903 465:0.00202 466:0.016581 467:-0.045278 468:0.032905 469:0.013056 470:-0.000519 471:-0.050613 472:0.059809 473:-0.056183 474:-0.061442 475:0.029875 476:0.029415 477:-0.035948 478:0.025745 479:-0.033793 480:0.055969 481:0.013096 482:-0.043986 483:0.014913 484:-0.065319 485:0.024304 486:-0.040309 487:0.113523 488:0.02896 489:-0.056093 490:0.029418 491:-0.049066 492:-0.004531 493:0.036458 494:0.027107 495:0.004098 496:0.02271 497:-0.067419 498:0.008755 499:-0.067602 500:0.016753 501:0.036076 502:0.01041 503:-0.036635 504:-0.028594 505:0.036812 506:0.060737 507:0.027188 508:-0.055308 509:-0.046165 510:0.046318 511:-0.005538 
0 0 1 0 0:0.035728 1:0.085363 2:-0.073242 3:0.014798 4:0.017296 5:-0.016056 6:-0.042217 7:0.045504 8:0.014069 9:0.01769 10:0.031252 11:-1.6e-05 12:-0.003556 13:0.012862 14:-0.041154 15:0.017805 16:0.087605 17:0.026615 18:0.025687 19:-0.017847 20:0.045732 21:0.001703 22:0.03219 23:-0.010286 24:0.01381 25:-0.007608 26:0.085479 27:-0.023378 28:0.081531 29:0.050805 30:0.01421 31:-0.04636 32:0.010443 33:0.021005 34:0.00951 35:-0.054257 36:-0.045803 37:-0.06851 38:0.024236 39:-0.011182 40:-0.092819 41:-0.068426 42:-0.0286 43:0.051066 44:-0.065023 45:-0.001661 46:-0.04657 47:0.051983 48:-0.012174 49:0.069831 50:-0.046427 51:-0.041523 52:0.031421 53:-0.03408 54:0.026964 55:0.007099 56:-0.000359 57:-0.038787 58:0.033037 59:-0.002049 60:0.0433 61:0.059235 62:0.00841 63:0.087144 64:0.018365 65:-0.076596 66:-0.015068 67:-0.009516 68:0.051234 69:-0.011976 70:-0.056427 71:-0.002002 72:-0.013782 73:0.045403 74:-0.006144 75:0.024423 76:-0.052149 77:-0.083365 78:0.045585 79:0.016482 80:0.039812 81:-0.071305 82:-0.02445 83:0.05576 84:0.008397 85:-0.034214 86:-0.008007 87:0.032501 88:0.035901 89:-0.078654 90:-0.037602 91:-0.039183 92:-0.00722 93:0.026389 94:0.016022 95:0.038773 96:-0.057832 97:0.011526 98:-0.00559 99:0.008435 100:0.059782 101:0.01848 102:-0.01824 103:0.035271 104:-0.019208 105:0.0069 106:-0.052918 107:-0.059327 108:0.065016 109:-0.039702 110:0.040946 111:-0.006843 112:-0.010107 113:-0.06829 114:-0.013459 115:-0.005404 116:-0.00716 117:0.015477 118:0.002164 119:0.047253 120:0.075279 121:0.007709 122:-0.035559 123:-0.029131 124:-0.073588 125:-0.01861 126:0.046188 127:-0.04381 128:-0.004984 129:0.07267 130:-0.04293 131:0.043832 132:-0.026551 133:-0.06395 134:-0.020056 135:-0.00311 136:-0.044979 137:-0.020952 138:0.045974 139:0.061911 140:-0.013465 141:0.057462 142:-0.016684 143:-0.099055 144:0.044159 145:0.009523 146:0.047681 147:0.006222 148:-0.02433 149:-0.024431 150:0.02879 151:0.045861 152:0.06738 153:0.039668 154:0.007278 155:-0.021241 156:-0.082575 157:-0.013952 158:0.006841 159:-0.098087 160:0.046861 161:0.035206 162:0.038253 163:0.05082 164:0.045123 165:-0.007552 166:0.032446 167:0.08602 168:-0.10801 169:0.011809 170:0.046716 171:-0.015272 172:0.051399 173:0.036856 174:-0.005843 175:0.008324 176:-0.099407 177:0.031292 178:0.015323 179:0.033926 180:0.017814 181:-0.068414 182:-0.040598 183:-0.021129 184:0.045322 185:0.014825 186:0.020324 187:0.028575 188:-0.071929 189:-0.007858 190:-0.04786 191:0.02981 192:0.048306 193:-0.099369 194:0.044152 195:-0.047724 196:-0.047618 197:-0.01169 198:0.051598 199:0.019549 200:0.022548 201:-6.8e-05 202:0.045221 203:-0.043552 204:0.040259 205:0.000857 206:0.033895 207:-0.063211 208:-0.01702 209:0.009583 210:-0.013391 211:0.037506 212:-0.02707 213:0.022647 214:-0.020107 215:0.031876 216:0.02826 217:0.012118 218:0.022235 219:-0.026009 220:-0.029982 221:0.005315 222:0.046455 223:0.054578 224:0.077026 225:-0.016757 226:-0.047174 227:-0.042637 228:-0.000901 229:-0.053702 230:0.014005 231:-0.052644 232:0.036334 233:-0.035529 234:-0.025377 235:-0.027834 236:0.010604 237:0.011936 238:0.014738 239:-0.001142 240:0.0363 241:-0.045359 242:0.008696 243:-0.060863 244:0.034893 245:0.133124 246:-0.055876 247:-0.022476 248:0.042636 249:-0.011719 250:-0.080365 251:-0.031729 252:0.044529 253:0.06238 254:-0.054116 255:-0.07248 256:0.023614 257:0.076017 258:0.07082 259:-0.029525 260:-0.039833 261:-0.045932 262:0.057638 263:-0.065708 264:0.014321 265:-0.074922 266:0.052866 267:-0.011517 268:-0.01623 269:-0.045462 270:0.127721 271:0.007648 272:0.060264 273:0.019294 274:-0.040822 275:0.131316 276:0.029856 277:0.055243 278:-0.022187 279:-0.02579 280:0.032474 281:-0.039908 282:-0.00072 283:0.011967 284:-0.001911 285:-0.00084 286:-0.00227 287:-0.023746 288:-0.022359 289:0.041235 290:-0.031727 291:-0.08505 292:-0.064545 293:0.003008 294:-0.080713 295:-0.031149 296:-0.065394 297:-0.041933 298:0.059604 299:-0.002332 300:0.064213 301:-0.01996 302:-0.02874 303:0.000218 304:-0.006818 305:-0.01917 306:0.04858 307:-0.002262 308:-0.091185 309:-0.006422 310:-0.058969 311:-0.059194 312:0.006625 313:-0.012851 314:0.028598 315:0.003045 316:-0.020466 317:-0.029141 318:0.059388 319:-0.037092 320:-0.025677 321:-0.031849 322:-0.031961 323:-0.01491 324:-0.044016 325:0.057837 326:0.0466 327:0.056839 328:0.03185 329:0.007576 330:0.103373 331:0.002415 332:-0.129917 333:0.033277 334:-0.021088 335:0.013021 336:-0.005988 337:-0.065048 338:-0.030491 339:0.02066 340:0.080527 341:-0.0124 342:0.02375 343:0.017932 344:0.017019 345:0.007297 346:-0.056967 347:0.004662 348:0.005051 349:0.02223 350:-0.010171 351:-0.063842 352:0.001253 353:-0.011561 354:-0.020472 355:0.002104 356:0.027585 357:0.021127 358:-0.045804 359:-0.053368 360:-0.041828 361:-0.057013 362:-0.049506 363:-0.006473 364:0.033695 365:0.030686 366:0.02836 367:-0.011552 368:-0.039028 369:0.032176 370:-0.056116 371:0.022744 372:0.006581 373:-0.006827 374:0.038841 375:0.004732 376:-0.064968 377:0.035878 378:-0.055985 379:0.017233 380:-0.00263 381:0.016978 382:-0.024262 383:0.036943 384:0.043714 385:-0.042452 386:0.001599 387:0.097815 388:-0.044921 389:0.034212 390:0.008382 391:-0.00051 392:-0.082298 393:0.009702 394:-0.033051 395:-0.017042 396:-0.01744 397:0.038992 398:0.040009 399:-0.083337 400:0.009623 401:0.005655 402:0.071769 403:0.042577 404:0.020505 405:0.023258 406:-0.045134 407:0.024414 408:-0.003166 409:-0.003246 410:0.030744 411:0.039767 412:-0.030078 413:0.059024 414:-0.030933 415:-0.074859 416:0.105643 417:0.08144 418:0.019728 419:0.004872 420:0.018594 421:-0.007266 422:0.020651 423:-0.001424 424:0.021452 425:0.069987 426:-0.005395 427:0.035029 428:0.042182 429:0.001373 430:-0.00967 431:-0.043286 432:-0.049769 433:-0.002525 434:0.002662 435:-0.008146 436:-0.046163 437:-0.082971 438:0.013129 439:0.06277 440:-0.005506 441:-0.01326 442:-0.062399 443:0.017299 444:-0.039558 445:0.082156 446:-0.078358 447:0.049718 448:-0.012501 449:-0.034078 450:0.074963 451:0.026889 452:0.036698 453:0.022619 454:-0.032127 455:-0.074452 456:-0.081276 457:0.036942 458:0.045521 459:0.122749 460:0.027504 461:0.049343 462:-0.000637 463:0.082749 464:0.030285 465:-0.004097 466:0.045131 467:-0.060873 468:0.02596 469:-0.014973 470:-0.001246 471:-0.035864 472:0.104937 473:-0.041469 474:-0.062143 475:0.033347 476:0.001292 477:-0.038677 478:-0.005092 479:-0.05476 480:0.048207 481:0.010443 482:0.004209 483:0.018493 484:-0.076555 485:0.008559 486:-0.075232 487:0.115291 488:-0.009696 489:-0.062832 490:0.035919 491:-0.076662 492:-0.01654 493:0.01677 494:0.035093 495:-0.006041 496:0.019624 497:0.006649 498:-0.001645 499:-0.094481 500:0.040018 501:0.035679 502:0.029807 503:-0.023213 504:0.001356 505:0.03269 506:-0.001544 507:0.044077 508:-0.066689 509:-0.050957 510:0.070551 511:-0.017296 
0.99928092935736312 0 0 0 0:0.020007 1:0.065381 2:-0.061927 3:0.009714 4:0.022307 5:-0.011912 6:-0.020616 7:0.047358 8:0.036188 9:0.040059 10:0.03153 11:0.02234 12:0.000274 13:0.032509 14:-0.040224 15:0.028048 16:0.080607 17:0.039071 18:0.008981 19:0.011722 20:0.026474 21:-0.006325 22:0.025183 23:-0.055148 24:-0.007193 25:-0.013516 26:0.053564 27:-0.009018 28:0.056103 29:0.045672 30:0.036219 31:-0.050607 32:0.038884 33:0.032761 34:0.006432 35:-0.081103 36:-0.068167 37:-0.065997 38:0.02286 39:0.023486 40:-0.068653 41:-0.056951 42:-0.025243 43:0.062463 44:-0.071663 45:0.012016 46:-0.047658 47:0.053488 48:-0.03543 49:0.033414 50:-0.067619 51:-0.049199 52:0.025281 53:-0.043813 54:0.011887 55:-0.017498 56:0.003222 57:-0.073539 58:-0.001032 59:-0.009772 60:0.007804 61:0.065301 62:-0.003188 63:0.094367 64:-0.00965 65:-0.085723 66:-0.006293 67:-0.069661 68:0.02943 69:-0.038283 70:-0.037961 71:-0.032753 72:-0.021411 73:0.014405 74:-0.034694 75:0.048562 76:-0.008267 77:-0.069418 78:0.059992 79:0.007317 80:0.021215 81:-0.075966 82:-0.043659 83:0.040561 84:0.035378 85:-0.005903 86:-0.012025 87:0.027014 88:-0.024387 89:-0.106352 90:-0.058016 91:-0.086538 92:-0.008147 93:-0.008733 94:0.048379 95:0.051114 96:-0.060002 97:0.010873 98:0.028146 99:0.037866 100:0.055565 101:0.064849 102:-0.004293 103:0.077151 104:0.0077 105:0.001545 106:-0.054059 107:-0.025327 108:0.07962 109:-0.038219 110:0.02719 111:-0.024284 112:-0.006569 113:-0.097239 114:-0.027475 115:0.011368 116:-0.022167 117:0.036226 118:0.021905 119:0.027354 120:0.083972 121:-0.014557 122:-0.041401 123:-0.020062 124:-0.069639 125:-0.050507 126:0.045655 127:-0.061985 128:-0.03075 129:0.049443 130:-0.038648 131:0.039578 132:-0.025982 133:-0.059986 134:-0.000985 135:0.003096 136:-0.013649 137:-0.056328 138:0.063253 139:0.052145 140:0.014644 141:0.052452 142:-0.033392 143:-0.077643 144:0.044954 145:-0.000681 146:0.025839 147:0.018641 148:-0.083616 149:-0.029451 150:0.016811 151:0.048203 152:0.060723 153:0.048144 154:0.022793 155:-0.021007 156:-0.063723 157:-0.010505 158:-0.022677 159:-0.093151 160:0.030152 161:0.096158 162:0.03953 163:0.050361 164:0.049574 165:0.029425 166:0.029588 167:0.089565 168:-0.116461 169:0.013978 170:0.017265 171:0.006583 172:0.065477 173:0.030227 174:0.007144 175:-0.003048 176:-0.106836 177:-0.0063 178:0.012184 179:0.032295 180:0.022897 181:-0.04543 182:-0.015684 183:0.007978 184:0.067188 185:0.004206 186:0.019899 187:0.005384 188:-0.027101 189:-0.022707 190:-0.058136 191:0.048784 192:0.043094 193:-0.091181 194:0.063121 195:-0.030238 196:-0.041811 197:-0.01181 198:0.067289 199:-0.005283 200:0.040512 201:-0.014048 202:0.059999 203:-0.081435 204:0.012711 205:0.013068 206:0.01159 207:-0.033423 208:-0.006282 209:0.020308 210:-0.019986 211:0.038811 212:-0.023268 213:-0.020911 214:0.008408 215:0.007808 216:0.033453 217:-0.000867 218:0.016447 219:-0.033657 220:0.001418 221:0.013934 222:0.073231 223:0.053371 224:0.053373 225:-0.036191 226:0.007027 227:-0.075062 228:-0.022201 229:-0.054483 230:-0.012043 231:-0.028043 232:0.025606 233:-0.026882 234:-0.053915 235:-0.028278 236:0.03657 237:-0.004172 238:0.024382 239:0.021616 240:0.045435 241:-0.05012 242:-0.002895 243:-0.064292 244:-0.007671 245:0.1147 246:-0.045162 247:-0.019558 248:0.003136 249:0.002201 250:-0.059211 251:-0.009228 252:0.096894 253:0.056798 254:-0.04807 255:-0.006607 256:0.008326 257:0.066383 258:0.040235 259:0.00093 260:-0.039897 261:-0.018812 262:0.054402 263:-0.039077 264:-0.00294 265:-0.032661 266:0.054888 267:-0.008881 268:-0.010701 269:-0.071307 270:0.10552 271:-0.006046 272:0.052903 273:-0.010339 274:-0.021804 275:0.135239 276:0.034322 277:0.047795 278:-0.025478 279:0.00065 280:0.039321 281:-0.016598 282:0.005301 283:0.044599 284:-0.003887 285:-0.007381 286:0.034275 287:-0.010107 288:-0.017502 289:0.057392 290:-0.007916 291:-0.096986 292:-0.045335 293:0.012587 294:-0.049988 295:-0.020146 296:-0.086648 297:-0.055472 298:0.068465 299:-0.013267 300:0.026304 301:-0.02723 302:-0.054274 303:-0.030812 304:-0.04184 305:0.006328 306:0.037563 307:0.00233 308:-0.091549 309:-0.030867 310:-0.101895 311:-0.070686 312:-0.002191 313:-0.032978 314:-0.010501 315:0.013063 316:-0.026223 317:-0.020506 318:0.074853 319:-0.037205 320:-0.064792 321:-0.004382 322:-0.017939 323:-0.039835 324:-0.067619 325:0.058271 326:0.003907 327:0.064772 328:0.022181 329:0.013186 330:0.07985 331:0.027172 332:-0.128925 333:0.029902 334:-0.009554 335:0.042011 336:0.033835 337:-0.048808 338:-0.070563 339:0.020299 340:0.0326 341:-0.032809 342:0.039291 343:0.037178 344:-0.010583 345:0.008266 346:-0.040497 347:-0.008806 348:-0.024101 349:0.021922 350:-0.016209 351:-0.018867 352:0.032624 353:-0.018037 354:0.024474 355:-0.044732 356:0.000579 357:0.014578 358:-0.045874 359:-0.041234 360:-0.039635 361:-0.035499 362:-0.033977 363:-0.025577 364:0.025017 365:0.065111 366:-0.00671 367:0.033258 368:-0.019345 369:0.031409 370:-0.040818 371:0.001962 372:0.028286 373:0.025795 374:0.02059 375:-0.006793 376:-0.052977 377:0.071465 378:-0.022774 379:0.015119 380:-0.00686 381:-0.000819 382:-0.050655 383:0.010244 384:0.023497 385:-0.049067 386:0.042403 387:0.068274 388:-0.037828 389:0.042025 390:0.017391 391:0.005163 392:-0.07884 393:0.050325 394:-0.025466 395:-0.006224 396:-0.053442 397:0.029388 398:0.066608 399:-0.109444 400:0.020501 401:-0.009386 402:0.053328 403:0.046114 404:0.044142 405:0.064309 406:-0.055938 407:0.00915 408:-0.013697 409:-0.047993 410:-0.004764 411:0.016254 412:0.015691 413:0.008547 414:-0.038167 415:-0.037014 416:0.117936 417:0.036061 418:0.038003 419:-0.006311 420:0.061734 421:-0.013883 422:0.026338 423:0.004459 424:0.019005 425:0.067795 426:-0.023614 427:0.00349 428:0.055796 429:0.020685 430:-0.029894 431:-0.049475 432:-0.036814 433:0.007347 434:0.035033 435:-0.00702 436:-0.069938 437:-0.081221 438:-0.017798 439:0.069898 440:-0.03458 441:0.007536 442:-0.066694 443:0.042638 444:-0.02012 445:0.044949 446:-0.051031 447:-0.015417 448:-0.035856 449:-0.038171 450:0.032827 451:0.011209 452:0.041228 453:0.026158 454:-0.022671 455:-0.083688 456:-0.0563 457:0.03136 458:0.026162 459:0.105759 460:0.050296 461:0.085076 462:0.018742 463:0.061457 464:0.042794 465:0.033125 466:0.038023 467:-0.071982 468:0.028708 469:0.003228 470:-0.005915 471:-0.047467 472:0.061441 473:-0.014383 474:-0.052407 475:0.037007 476:0.012384 477:-0.033837 478:0.020354 479:-0.006948 480:0.054161 481:-0.014443 482:-0.040725 483:0.013342 484:-0.049319 485:0.032586 486:-0.053424 487:0.104547 488:-0.006143 489:-0.042502 490:0.026675 491:-0.069843 492:-0.005327 493:0.023665 494:0.011821 495:-0.015043 496:0.02477 497:-0.024732 498:0.000705 499:-0.096609 500:0.032289 501:0.016851 502:0.023812 503:-0.026935 504:-0.028952 505:0.041023 506:0.015357 507:0.051911 508:-0.053006 509:-0.072861 510:0.020368 511:0.009176 
0.20345081052247163 0 0 0 0:0.02497 1:0.05085 2:-0.041055 3:0.018802 4:0.013002 5:0.034922 6:-0.006881 7:0.025188 8:0.026234 9:0.025959 10:-0.000974 11:-0.007976 12:-0.002213 13:0.00085 14:-0.04591 15:0.01441 16:0.085071 17:0.045914 18:0.01706 19:0.014066 20:0.011897 21:-0.001337 22:0.074642 23:-0.049697 24:-0.004054 25:0.008952 26:0.071909 27:-0.00691 28:0.039125 29:0.065211 30:0.049235 31:-0.016942 32:-0.003906 33:0.018126 34:-0.001628 35:-0.087404 36:-0.015509 37:-0.087116 38:0.031874 39:-0.023799 40:0.00059 41:-0.063229 42:-0.017964 43:0.04733 44:-0.035967 45:0.014778 46:-0.067267 47:0.028313 48:-0.042951 49:0.015773 50:-0.048945 51:-0.062254 52:-0.010505 53:-0.035971 54:-0.030479 55:-0.037145 56:0.005443 57:-0.07285 58:0.041984 59:-0.002136 60:-0.008215 61:0.059714 62:-0.014794 63:0.105673 64:-0.028764 65:-0.074122 66:-0.005902 67:-0.075567 68:0.012201 69:-0.022723 70:-0.050868 71:-0.001271 72:-0.003079 73:0.03775 74:-0.024196 75:0.031898 76:-0.029635 77:-0.092875 78:0.026349 79:-0.027275 80:0.062242 81:-0.088723 82:-0.0313 83:0.004622 84:0.045252 85:0.020627 86:-0.028272 87:-0.005692 88:-0.019985 89:-0.091955 90:-0.040362 91:-0.098158 92:0.021264 93:0.002549 94:0.049176 95:0.043892 96:-0.049828 97:0.020105 98:0.019584 99:0.043667 100:0.072944 101:0.057828 102:-0.025004 103:0.094843 104:-0.013677 105:-0.012928 106:-0.054047 107:-0.043595 108:0.051525 109:-0.025669 110:0.041445 111:-0.006609 112:-0.013753 113:-0.105718 114:-0.019559 115:-0.00201 116:-0.066386 117:0.004869 118:0.062222 119:0.067635 120:0.11634 121:0.003693 122:-0.045323 123:-0.061048 124:-0.038209 125:-0.072272 126:0.095213 127:-0.018585 128:-0.048141 129:0.012818 130:-0.016943 131:0.00993 132:-0.079787 133:-0.000956 134:-0.028829 135:0.027709 136:-0.035119 137:-0.089729 138:0.042641 139:0.073231 140:-0.017384 141:0.068181 142:-0.03214 143:-0.015436 144:0.051028 145:-0.032434 146:0.068572 147:0.021286 148:-0.056009 149:-0.035914 150:0.008631 151:0.0782 152:0.091609 153:0.027834 154:0.048095 155:-0.007374 156:-0.099596 157:-0.020743 158:0.00119 159:-0.076616 160:0.045229 161:0.087184 162:0.017521 163:0.053913 164:0.039835 165:0.048555 166:0.0184 167:0.039631 168:-0.11248 169:-0.00705 170:0.016877 171:0.020868 172:0.072979 173:0.056733 174:0.036135 175:0.029985 176:-0.102236 177:0.002765 178:0.008417 179:0.040905 180:0.030697 181:-0.030507 182:-0.013412 183:0.003421 184:0.060531 185:-0.015017 186:0.039468 187:0.020179 188:0.030626 189:-0.033598 190:-0.019691 191:0.043038 192:0.035594 193:-0.130118 194:0.095667 195:-0.062945 196:-0.040352 197:-0.010154 198:0.07081 199:-0.013318 200:0.03741 201:-0.027079 202:0.05948 203:-0.052989 204:0.033444 205:0.051515 206:0.035179 207:-0.02354 208:0.030147 209:0.011651 210:0.002774 211:0.061457 212:-0.000792 213:-0.015787 214:0.022493 215:0.003473 216:0.045003 217:-0.028083 218:0.021976 219:-0.005623 220:0.021765 221:0.005687 222:0.034336 223:0.038869 224:0.027994 225:-0.011133 226:-0.001251 227:-0.070905 228:-0.007362 229:-0.060587 230:0.009175 231:0.000542 232:0.010586 233:0.026269 234:-0.070762 235:-0.01777 236:0.046746 237:-0.013717 238:-0.023234 239:0.031468 240:0.046985 241:-0.013977 242:-0.028291 243:-0.03144 244:-0.005698 245:0.086326 246:-0.03319 247:-0.02175 248:-0.024558 249:0.026736 250:-0.056578 251:-0.040929 252:0.095513 253:0.024002 254:-0.031183 255:-0.042962 256:-0.002996 257:0.01295 258:0.036733 259:0.005827 260:-0.042797 261:0.004491 262:0.063113 263:-0.04006 264:0.005737 265:-0.018592 266:0.043975 267:-0.019591 268:-0.014566 269:-0.12737 270:0.132001 271:0.043431 272:0.084426 273:-0.020615 274:-0.015482 275:0.1205 276:0.030757 277:0.048712 278:0.036009 279:-0.013204 280:0.02623 281:-0.008293 282:0.029052 283:0.029899 284:-0.014574 285:-0.048479 286:0.041696 287:0.005222 288:-0.001888 289:0.04265 290:-0.024485 291:-0.079751 292:-0.093668 293:0.034257 294:-0.044063 295:-0.02743 296:-0.08932 297:-0.04044 298:0.029507 299:-0.023992 300:0.046614 301:-0.038533 302:-0.055572 303:-0.012254 304:-0.018591 305:0.029388 306:0.010009 307:0.009699 308:-0.069319 309:-0.008812 310:-0.054996 311:-0.069341 312:-0.03017 313:-0.044994 314:-0.032731 315:-0.004254 316:-0.036961 317:-0.007911 318:0.069652 319:-0.034131 320:-0.006333 321:-0.025404 322:-0.007864 323:-0.019511 324:-0.064719 325:0.025621 326:0.038207 327:0.011832 328:0.00967 329:-0.056763 330:0.060567 331:-0.028014 332:-0.066541 333:0.017661 334:-0.002374 335:0.057305 336:0.05693 337:-0.037114 338:-0.026069 339:-0.029556 340:0.023109 341:-0.045419 342:0.033564 343:0.035603 344:-0.028173 345:0.005222 346:0.000223 347:-0.017662 348:-0.030573 349:0.03743 350:-0.008966 351:-0.032955 352:0.023974 353:4e-05 354:0.006795 355:-0.016449 356:0.016276 357:0.012065 358:-0.065345 359:-0.018886 360:-0.006471 361:-0.047849 362:-0.006028 363:-0.000648 364:0.059252 365:0.045573 366:-0.012459 367:-0.007127 368:-0.030188 369:0.057441 370:-0.012416 371:-0.009549 372:-0.012159 373:0.033069 374:0.022924 375:-0.010224 376:-0.03964 377:0.055259 378:-0.000355 379:0.048364 380:-0.010549 381:0.000994 382:-0.023631 383:0.027743 384:0.030789 385:-0.032788 386:0.038301 387:0.096497 388:-0.031111 389:0.036738 390:0.028633 391:0.019372 392:-0.075828 393:0.051801 394:-0.014247 395:-0.005971 396:-0.023367 397:0.044498 398:0.030106 399:-0.137881 400:0.021587 401:-0.030833 402:0.035679 403:0.087053 404:0.045941 405:0.007976 406:-0.086609 407:0.024139 408:-0.003229 409:-0.030645 410:0.023276 411:-0.025617 412:0.008611 413:0.038388 414:-0.004533 415:-0.069722 416:0.107482 417:0.0541 418:0.035839 419:-0.014995 420:0.011652 421:-0.030815 422:0.045982 423:-0.020445 424:-0.008289 425:0.061159 426:-0.018768 427:-0.005064 428:0.021425 429:-0.010263 430:-0.034151 431:-0.010838 432:-0.009409 433:0.024082 434:0.053212 435:0.003618 436:-0.048577 437:-0.057255 438:-0.001688 439:0.02261 440:-0.065384 441:0.010932 442:-0.052643 443:0.053884 444:-0.029143 445:0.026991 446:-0.033096 447:-0.009695 448:0.001263 449:-0.026701 450:0.008018 451:-0.022662 452:0.029447 453:0.009144 454:-0.020446 455:-0.018177 456:-0.057136 457:0.012664 458:0.01252 459:0.109321 460:0.044244 461:0.103639 462:0.011083 463:0.058132 464:0.028031 465:0.036542 466:0.022595 467:-0.064912 468:0.079703 469:0.01169 470:0.055571 471:-0.048143 472:0.04762 473:0.007226 474:-0.013056 475:0.044352 476:0.042849 477:-0.012765 478:0.003501 479:0.016622 480:0.056032 481:-0.021544 482:-0.015151 483:0.037317 484:-0.050018 485:0.045196 486:-0.07197 487:0.111248 488:0.02406 489:-0.033906 490:0.034456 491:-0.08108 492:-0.012331 493:-0.001319 494:0.026844 495:0.003072 496:-0.000677 497:-0.061474 498:0.041036 499:-0.05542 500:0.04665 501:-0.02771 502:0.029871 503:-0.022945 504:-0.02929 505:0.070724 506:0.011505 507:0.037159 508:-0.044285 509:-0.065961 510:0.020436 511:-0.00069 
